{"learner":{"attributes":{"best_iteration":"25","best_score":"0.9425124824465595","scikit_learn":"{\"_estimator_type\": \"classifier\"}"},"feature_names":["event_cause","corridor_grouped","priority","veh_type","day_of_week","time_of_day","requires_road_closure","is_weekend"],"feature_types":["c","c","c","c","c","c","i","i"],"gradient_booster":{"model":{"cats":{"enc":[{"offsets":[0,8,18,30,36,56,62,71,81,88,100,115,124,133,150,162,175],"values":[97,99,99,105,100,101,110,116,99,111,110,103,101,115,116,105,111,110,99,111,110,115,116,114,117,99,116,105,111,110,100,101,98,114,105,115,102,111,103,32,47,32,108,111,119,32,118,105,115,105,98,105,108,105,116,121,111,116,104,101,114,115,112,111,116,95,104,111,108,101,115,112,114,111,99,101,115,115,105,111,110,112,114,111,116,101,115,116,112,117,98,108,105,99,95,101,118,101,110,116,114,111,97,100,95,99,111,110,100,105,116,105,111,110,115,116,101,115,116,95,100,101,109,111,116,114,101,101,95,102,97,108,108,118,101,104,105,99,108,101,95,98,114,101,97,107,100,111,119,110,118,105,112,95,109,111,118,101,109,101,110,116,119,97,116,101,114,95,108,111,103,103,105,110,103]},{"offsets":[0,16,30,44,54,65,76,88,98,108,119,130,140,155,166,184,198],"values":[66,97,110,110,101,114,103,104,97,116,97,32,82,111,97,100,66,101,108,108,97,114,121,32,82,111,97,100,32,49,66,101,108,108,97,114,121,32,82,111,97,100,32,50,72,111,115,117,114,32,82,111,97,100,77,97,103,97,100,105,32,82,111,97,100,77,121,115,111,114,101,32,82,111,97,100,78,111,110,45,99,111,114,114,105,100,111,114,79,82,82,32,69,97,115,116,32,49,79,82,82,32,69,97,115,116,32,50,79,82,82,32,78,111,114,116,104,32,49,79,82,82,32,78,111,114,116,104,32,50,79,82,82,32,87,101,115,116,32,49,79,108,100,32,77,97,100,114,97,115,32,82,111,97,100,84,117,109,107,117,114,32,82,111,97,100,87,101,115,116,32,111,102,32,67,104,111,114,100,32,82,111,97,100,111,116,104,101,114,95,99,111,114,114,105,100,111,114]},{"offsets":[0,4,7],"values":[72,105,103,104,76,111,119]},{"offsets":[0,4,12,25,34,37,43,54,65,69,74,81],"values":[97,117,116,111,98,109,116,99,95,98,117,115,104,101,97,118,121,95,118,101,104,105,99,108,101,107,115,114,116,99,95,98,117,115,108,99,118,111,116,104,101,114,115,112,114,105,118,97,116,101,95,98,117,115,112,114,105,118,97,116,101,95,99,97,114,116,97,120,105,116,114,117,99,107,117,110,107,110,111,119,110]},{"offsets":[0,6,12,20,26,34,41,50],"values":[70,114,105,100,97,121,77,111,110,100,97,121,83,97,116,117,114,100,97,121,83,117,110,100,97,121,84,104,117,114,115,100,97,121,84,117,101,115,100,97,121,87,101,100,110,101,115,100,97,121]},{"offsets":[0,7,20,27,37,42],"values":[100,97,121,116,105,109,101,101,97,114,108,121,95,109,111,114,110,105,110,103,101,118,101,110,105,110,103,108,97,116,101,95,110,105,103,104,116,110,105,103,104,116]},{"offsets":[],"values":[]},{"offsets":[],"values":[]}],"feature_segments":[0,16,32,34,45,52,57,57,57],"sorted_idx":[0,1,2,3,4,5,6,7,8,9,10,11,12,13,14,15,0,1,2,3,4,5,6,7,8,9,10,11,12,13,14,15,0,1,0,1,2,3,4,5,6,7,8,9,10,0,1,2,3,4,5,6,0,1,2,3,4]},"gbtree_model_param":{"num_parallel_tree":"1","num_trees":"56"},"iteration_indptr":[0,1,2,3,4,5,6,7,8,9,10,11,12,13,14,15,16,17,18,19,20,21,22,23,24,25,26,27,28,29,30,31,32,33,34,35,36,37,38,39,40,41,42,43,44,45,46,47,48,49,50,51,52,53,54,55,56],"tree_info":[0,0,0,0,0,0,0,0,0,0,0,0,0,0,0,0,0,0,0,0,0,0,0,0,0,0,0,0,0,0,0,0,0,0,0,0,0,0,0,0,0,0,0,0,0,0,0,0,0,0,0,0,0,0,0,0],"trees":[{"base_weights":[6.450636E-3,1.6332272E0,-1.5434237E0,1.7398922E0,1.4542385E0,-2.4321172E-1,-1.7014539E0,1.7756908E0,1.4935129E0,1.5138837E0,1.0347854E0,1.2973882E-1,-1.8199882E-1,-1.2902219E0,-1.7413989E0,1.8175759E0,1.5460393E0,1.6109392E-1,2.0317456E-1,1.6372104E0,1.4548407E0,1.403024E-1,9.176848E-2,-1.094134E0,-1.8361276E-1,-1.3909917E0,-1.7686973E0,2.2939138E-1,2.1188661E-1,2.0926301E-1,1.1092747E-1,2.0465235E-1,1.636966E-1,1.6932626E-1,1.9484247E-1,-1.6395208E-1,-8.7699E-2,-2.0690054E-1,-1.406539E-1,-2.0879686E-1,-2.3157051E-1],"categories":[0,1,3,4,7,13,0,1,3,4,5,7,8,9,11,12,13,14,1,13,3,0,1,2,3,1,2,3,4,1,2,3,4,10,12,13,14,0,1,3,4,5,6,7,8,9,10,11,12,13,14,15,1,3,4,0,1,2,3,4,5,7,8,9,10,11,12,0,1,6,1,2,4,5,6,7,9,10,1,2,3,4,6,9,10,12,13,14,15,0,1,2,3,4,5,7,8,9,10,0,1,2,3,4,5,7,0,1,2,3,4,7,0,1,2,0,1,2,3,4,6,6,7,10],"categories_nodes":[0,1,2,4,5,6,7,8,9,10,13,14,15,16,19,20,23,25,26],"categories_segments":[0,6,18,20,21,25,29,37,52,55,67,70,78,89,99,106,112,115,121],"categories_sizes":[6,12,2,1,4,4,8,15,3,12,3,8,11,10,7,6,3,6,3],"default_left":[1,1,1,0,1,1,1,1,1,1,1,0,0,1,1,1,1,0,0,1,1,0,0,1,0,1,1,0,0,0,0,0,0,0,0,0,0,0,0,0,0],"id":0,"left_children":[1,3,5,7,9,11,13,15,17,19,21,-1,-1,23,25,27,29,-1,-1,31,33,-1,-1,35,-1,37,39,-1,-1,-1,-1,-1,-1,-1,-1,-1,-1,-1,-1,-1,-1],"loss_changes":[4.93687E3,1.6953125E1,2.0581934E2,3.909546E0,8.2039795E0,1.8432896E2,1.3542969E1,3.5526123E0,1.2263641E0,1.0750732E0,1.2082367E0,0E0,0E0,2.9142303E0,6.529785E0,4.678955E-1,9.264664E0,0E0,0E0,5.647583E-1,5.154114E-1,0E0,0E0,4.02586E0,0E0,3.4369507E0,2.121338E0,0E0,0E0,0E0,0E0,0E0,0E0,0E0,0E0,0E0,0E0,0E0,0E0,0E0,0E0],"parents":[2147483647,0,0,1,1,2,2,3,3,4,4,5,5,6,6,7,7,8,8,9,9,10,10,13,13,14,14,15,15,16,16,19,19,20,20,23,23,25,25,26,26],"right_children":[2,4,6,8,10,12,14,16,18,20,22,-1,-1,24,26,28,30,-1,-1,32,34,-1,-1,36,-1,38,40,-1,-1,-1,-1,-1,-1,-1,-1,-1,-1,-1,-1,-1,-1],"split_conditions":[1E-45,1E-45,1E-45,1E0,1E-45,1E-45,1E-45,1E-45,1E-45,1E-45,1E-45,1.2973882E-1,-1.8199882E-1,1E-45,1E-45,1E-45,1E-45,1.6109392E-1,2.0317456E-1,1E-45,1E-45,1.403024E-1,9.176848E-2,1E-45,-1.8361276E-1,1E-45,1E-45,2.2939138E-1,2.1188661E-1,2.0926301E-1,1.1092747E-1,2.0465235E-1,1.636966E-1,1.6932626E-1,1.9484247E-1,-1.6395208E-1,-8.7699E-2,-2.0690054E-1,-1.406539E-1,-2.0879686E-1,-2.3157051E-1],"split_indices":[0,0,0,6,5,5,5,1,0,5,1,0,0,1,3,1,0,0,0,1,1,0,0,3,0,1,3,0,0,0,0,0,0,0,0,0,0,0,0,0,0],"split_type":[1,1,1,0,1,1,1,1,1,1,1,0,0,1,1,1,1,0,0,1,1,0,0,1,0,1,1,0,0,0,0,0,0,0,0,0,0,0,0,0,0],"sum_hessian":[1.9570579E3,9.5482794E2,1.0022299E3,5.95523E2,3.5930496E2,1.08752945E2,8.93477E2,5.172285E2,7.829446E1,3.134152E2,4.5889755E1,5.3325558E1,5.542739E1,8.05975E1,8.128795E2,4.3448517E2,8.274336E1,4.6101982E1,3.219247E1,9.7089905E1,2.1632529E2,2.975579E1,1.6133965E1,4.564137E1,3.4956135E1,6.0651318E1,7.5222815E2,1.5914978E2,2.753354E2,6.239787E1,2.0345491E1,7.651961E1,2.0570293E1,1.7248549E2,4.38398E1,2.5457802E1,2.0183569E1,2.2983393E1,3.7667923E1,6.290124E2,1.2321582E2],"tree_param":{"num_deleted":"0","num_feature":"8","num_nodes":"41","size_leaf_vector":"1"}},{"base_weights":[-7.1237236E-4,1.2171417E0,-1.5034722E0,1.2594659E0,6.4335597E-1,-1.2368084E0,-1.5626285E0,1.628251E0,1.2149863E0,1.5595597E-1,3.1813228E-1,-1.4885085E-2,-1.3954221E0,-1.349116E0,-1.6019803E0,2.0823301E-1,1.5605445E-1,1.2537686E0,9.5929235E-1,7.620216E-2,1.2251394E-2,-1.1992399E0,-2.0249796E-1,-9.040649E-2,-1.5039746E0,-1.3208592E0,-1.6266128E0,1.5498303E-1,1.2732883E-1,1.24949954E-1,1.0494871E-1,-1.2582223E-1,-2.0923749E-1,-1.6367278E-1,-2.117186E-1,-2.1024466E-1,-1.2725449E-1,-1.8680148E-1,-2.0166303E-1],"categories":[0,1,2,3,4,5,6,7,8,9,2,10,12,0,1,3,4,5,6,9,10,12,13,14,1,2,3,4,5,6,7,9,10,11,12,13,14,15,0,1,2,3,1,2,3,4,0,1,2,3,5,6,0,1,2,3,3,0,1,2,3,4,1,4,5,1,3,4,1,2,4,5,6,7,9,0,1,2,3,8,9,10,12,13,1,4,5,6,2,4,0,1,2,3,4,6,2,4,6,7,9],"categories_nodes":[0,1,2,3,4,5,6,7,8,10,12,13,14,17,18,21,24,25,26],"categories_segments":[0,10,13,24,38,42,46,52,56,57,62,65,68,75,84,88,89,90,96],"categories_sizes":[10,3,11,14,4,4,6,4,1,5,3,3,7,9,4,1,1,6,5],"default_left":[1,1,1,1,1,1,1,1,1,0,1,0,1,1,1,0,0,1,1,0,0,1,0,0,1,1,1,0,0,0,0,0,0,0,0,0,0,0,0],"id":1,"left_children":[1,3,5,7,9,11,13,15,17,-1,19,-1,21,23,25,-1,-1,27,29,-1,-1,31,-1,-1,33,35,37,-1,-1,-1,-1,-1,-1,-1,-1,-1,-1,-1,-1],"loss_changes":[3.5526597E3,2.5624634E1,1.2724243E1,1.5364868E1,1.5664337E1,2.818898E1,4.8602295E0,2.479126E0,8.238159E0,0E0,3.4145885E0,0E0,6.9082947E0,9.928452E0,3.0357666E0,0E0,0E0,4.595459E0,3.6330414E-1,0E0,0E0,6.1172104E0,0E0,0E0,2.0706787E0,4.7530518E0,6.9104004E-1,0E0,0E0,0E0,0E0,0E0,0E0,0E0,0E0,0E0,0E0,0E0,0E0],"parents":[2147483647,0,0,1,1,2,2,3,3,4,4,5,5,6,6,7,7,8,8,10,10,12,12,13,13,14,14,17,17,18,18,21,21,24,24,25,25,26,26],"right_children":[2,4,6,8,10,12,14,16,18,-1,20,-1,22,24,26,-1,-1,28,30,-1,-1,32,-1,-1,34,36,38,-1,-1,-1,-1,-1,-1,-1,-1,-1,-1,-1,-1],"split_conditions":[1E-45,1E-45,1E-45,1E-45,1E-45,1E-45,1E-45,1E-45,1E-45,1.5595597E-1,1E-45,-1.4885085E-2,1E-45,1E-45,1E-45,2.0823301E-1,1.5605445E-1,1E-45,1E-45,7.620216E-2,1.2251394E-2,1E-45,-2.0249796E-1,-9.040649E-2,1E-45,1E-45,1E-45,1.5498303E-1,1.2732883E-1,1.24949954E-1,1.0494871E-1,-1.2582223E-1,-2.0923749E-1,-1.6367278E-1,-2.117186E-1,-2.1024466E-1,-1.2725449E-1,-1.8680148E-1,-2.0166303E-1],"split_indices":[3,1,1,1,5,5,4,5,5,0,4,0,4,5,3,0,0,1,4,0,0,3,0,0,5,1,3,0,0,0,0,0,0,0,0,0,0,0,0],"split_type":[1,1,1,1,1,1,1,1,1,0,1,0,1,1,1,0,0,1,1,0,0,1,0,0,1,1,1,0,0,0,0,0,0,0,0,0,0,0,0],"sum_hessian":[1.9401847E3,1.0717332E3,8.684515E2,9.975434E2,7.418984E1,1.5969205E2,7.0875946E2,1.0542568E2,8.921177E2,2.414633E1,5.0043514E1,2.0033245E1,1.396588E2,1.1308067E2,5.956788E2,7.865385E1,2.6771837E1,7.729074E2,1.1921031E2,1.994636E1,3.0097155E1,8.4694824E1,5.4963978E1,2.3894419E1,8.918626E1,5.02185E1,5.4546027E2,6.525144E2,1.2039296E2,5.9098175E1,6.0112137E1,6.718821E1,1.750661E1,5.935302E1,2.9833239E1,1.8016382E1,3.2202114E1,2.2927808E2,3.161822E2],"tree_param":{"num_deleted":"0","num_feature":"8","num_nodes":"39","size_leaf_vector":"1"}},{"base_weights":[-3.8929927E-4,1.3221925E0,-1.2545767E0,1.5702394E0,1.2541519E0,-3.0703145E-1,-1.3782166E0,1.9722015E-1,1.3575068E0,1.4511294E0,1.1657566E0,1.1855165E-1,-1.4892871E0,-9.927009E-1,-1.4171677E0,1.4369874E-1,1.8010111E-1,1.837538E-1,1.3632703E0,1.2375046E0,1.0364009E0,-1.4031067E-1,-1.624105E0,-8.0602545E-1,-1.483357E-1,-1.0450128E0,-1.4474913E0,1.7443259E-1,1.3729227E-1,1.6727534E-1,1.4113817E-1,1.3089421E-1,6.2162872E-2,-2.2854796E-1,-1.634245E-1,-1.2798128E-1,-4.4449035E-2,-1.6715595E-1,-1.00568585E-1,-1.6696437E-1,-1.8951008E-1],"categories":[0,1,3,4,7,13,0,1,2,3,4,5,7,8,9,11,12,13,14,15,1,13,4,5,0,1,3,4,5,6,7,10,11,12,14,0,1,2,3,4,6,1,2,3,4,0,1,2,3,0,1,3,6,0,1,3,4,5,6,7,8,9,10,11,13,14,0,1,2,3,0,1,6,1,2,4,5,6,7,9,10,0,1,2,3,4,5,6,7,9,10,11,12,13,0,1,2,3,5,6,1,6,0,1,2,0,1,2,3,4,6,4,6,7,10],"categories_nodes":[0,1,2,3,4,5,6,8,9,10,12,13,14,18,19,20,22,23,25,26],"categories_segments":[0,6,20,22,24,35,41,45,49,53,66,70,73,81,94,100,101,102,105,111],"categories_sizes":[6,14,2,2,11,6,4,4,4,13,4,3,8,13,6,1,1,3,6,4],"default_left":[1,1,1,1,1,1,1,0,1,1,1,0,1,1,1,0,0,0,1,1,1,0,1,1,0,1,1,0,0,0,0,0,0,0,0,0,0,0,0,0,0],"id":2,"left_children":[1,3,5,7,9,11,13,-1,15,17,19,-1,21,23,25,-1,-1,-1,27,29,31,-1,33,35,-1,37,39,-1,-1,-1,-1,-1,-1,-1,-1,-1,-1,-1,-1,-1,-1],"loss_changes":[3.1644768E3,1.4669434E1,1.1449695E2,1.8097229E0,1.1869995E1,1.7449892E2,1.2287231E1,0E0,2.709198E-1,4.588318E-1,4.054077E0,0E0,1.6255493E0,3.1418E0,8.092407E0,0E0,0E0,0E0,1.2757568E0,2.3388062E0,4.697586E0,0E0,1.6718063E0,5.115719E0,0E0,3.7985687E0,4.381592E0,0E0,0E0,0E0,0E0,0E0,0E0,0E0,0E0,0E0,0E0,0E0,0E0,0E0,0E0],"parents":[2147483647,0,0,1,1,2,2,3,3,4,4,5,5,6,6,8,8,9,9,10,10,12,12,13,13,14,14,18,18,19,19,20,20,22,22,23,23,25,25,26,26],"right_children":[2,4,6,8,10,12,14,-1,16,18,20,-1,22,24,26,-1,-1,-1,28,30,32,-1,34,36,-1,38,40,-1,-1,-1,-1,-1,-1,-1,-1,-1,-1,-1,-1,-1,-1],"split_conditions":[1E-45,1E-45,1E-45,1E-45,1E-45,1E-45,1E-45,1.9722015E-1,1E-45,1E-45,1E-45,1.1855165E-1,1E-45,1E-45,1E-45,1.4369874E-1,1.8010111E-1,1.837538E-1,1E-45,1E-45,1E-45,-1.4031067E-1,1E-45,1E-45,-1.483357E-1,1E-45,1E-45,1.7443259E-1,1.3729227E-1,1.6727534E-1,1.4113817E-1,1.3089421E-1,6.2162872E-2,-2.2854796E-1,-1.634245E-1,-1.2798128E-1,-4.4449035E-2,-1.6715595E-1,-1.00568585E-1,-1.6696437E-1,-1.8951008E-1],"split_indices":[0,0,0,4,1,4,5,0,5,4,0,0,4,1,3,0,0,0,1,4,4,0,1,4,0,1,3,0,0,0,0,0,0,0,0,0,0,0,0,0,0],"split_type":[1,1,1,1,1,1,1,0,1,1,1,0,1,1,1,0,0,0,1,1,1,0,1,1,0,1,1,0,0,0,0,0,0,0,0,0,0,0,0,0,0],"sum_hessian":[1.9067222E3,9.280417E2,9.786805E2,1.9736346E2,7.306782E2,1.131684E2,8.65512E2,1.4600117E2,5.1362286E1,2.2391203E2,5.067662E2,5.4092697E1,5.9075703E1,8.065619E1,7.848559E2,2.6030146E1,2.5332142E1,1.1490114E2,1.09010895E2,3.231728E2,1.835934E2,1.8860224E1,4.021548E1,4.6683643E1,3.3972546E1,6.0487656E1,7.243682E2,7.616526E1,3.284564E1,9.171634E1,2.3145645E2,1.6633687E2,1.7256536E1,1.8151682E1,2.2063799E1,2.886522E1,1.7818422E1,2.1711193E1,3.8776463E1,5.006081E2,2.2376013E2],"tree_param":{"num_deleted":"0","num_feature":"8","num_nodes":"41","size_leaf_vector":"1"}},{"base_weights":[-1.3798935E-2,1.2059124E0,-1.1762596E0,1.3005192E0,1.0474381E0,-3.4974155E-1,-1.2833413E0,1.4299201E0,1.2326053E0,1.0879567E0,6.954146E-2,1.03777185E-1,-1.4750265E0,-9.020495E-1,-1.3228358E0,1.7966902E-1,1.2304478E0,1.736724E-1,1.1354173E0,1.1247606E0,9.499301E-2,-1.564235E-1,-1.942719E-1,-6.4919543E-1,-1.0910195E0,-1.287218E0,-1.821233E-1,1.2756589E-1,1.650963E-1,1.4215893E-1,1.2401552E-1,1.3940415E-1,1.11143045E-1,-3.8013335E-2,-1.226913E-1,-1.5074544E-1,-9.758411E-2,-1.5131776E-1,-1.7807476E-1],"categories":[0,1,3,4,7,13,0,1,3,4,5,7,8,9,11,12,13,14,1,13,0,1,2,3,4,5,7,8,9,11,12,13,14,15,1,0,1,2,3,4,6,1,2,3,4,4,5,0,1,2,3,4,5,6,7,9,10,11,12,13,14,3,0,1,2,0,1,2,3,6,7,10,0,1,2,3,2,4,0,1,0,1,2,3,0,1,2,3,4,5,3,10,13],"categories_nodes":[0,1,2,3,4,5,6,7,8,9,12,13,14,16,18,19,23,24,25],"categories_segments":[0,6,18,20,34,35,41,45,47,61,62,65,69,72,76,78,80,84,90],"categories_sizes":[6,12,2,14,1,6,4,2,14,1,3,4,3,4,2,2,4,6,3],"default_left":[1,1,1,1,1,1,1,1,1,1,0,0,1,1,1,0,1,0,1,1,0,0,0,1,1,1,0,0,0,0,0,0,0,0,0,0,0,0,0],"id":3,"left_children":[1,3,5,7,9,11,13,15,17,19,-1,-1,21,23,25,-1,27,-1,29,31,-1,-1,-1,33,35,37,-1,-1,-1,-1,-1,-1,-1,-1,-1,-1,-1,-1,-1],"loss_changes":[2.6085737E3,1.2765991E1,8.3140015E1,4.0249023E0,6.10614E0,1.4904517E2,1.1946777E1,1.4943542E0,6.7973022E0,2.9536743E0,0E0,0E0,3.1681824E-1,3.4525833E0,4.1604004E0,0E0,4.4367218E-1,0E0,6.283264E-1,1.3607483E0,0E0,0E0,0E0,4.2093477E0,1.5232849E0,2.6228027E0,0E0,0E0,0E0,0E0,0E0,0E0,0E0,0E0,0E0,0E0,0E0,0E0,0E0],"parents":[2147483647,0,0,1,1,2,2,3,3,4,4,5,5,6,6,7,7,8,8,9,9,12,12,13,13,14,14,16,16,18,18,19,19,23,23,24,24,25,25],"right_children":[2,4,6,8,10,12,14,16,18,20,-1,-1,22,24,26,-1,28,-1,30,32,-1,-1,-1,34,36,38,-1,-1,-1,-1,-1,-1,-1,-1,-1,-1,-1,-1,-1],"split_conditions":[1E-45,1E-45,1E-45,1E-45,1E-45,1E-45,1E-45,1E-45,1E-45,1E-45,6.954146E-2,1.03777185E-1,1E-45,1E-45,1E-45,1.7966902E-1,1E-45,1.736724E-1,1E-45,1E-45,9.499301E-2,-1.564235E-1,-1.942719E-1,1E-45,1E-45,1E-45,-1.821233E-1,1.2756589E-1,1.650963E-1,1.4215893E-1,1.2401552E-1,1.3940415E-1,1.11143045E-1,-3.8013335E-2,-1.226913E-1,-1.5074544E-1,-9.758411E-2,-1.5131776E-1,-1.7807476E-1],"split_indices":[0,0,0,0,4,4,5,4,1,5,0,0,4,4,3,0,5,0,5,4,0,0,0,3,1,1,0,0,0,0,0,0,0,0,0,0,0,0,0],"split_type":[1,1,1,1,1,1,1,1,1,1,0,0,1,1,1,0,1,0,1,1,0,0,0,1,1,1,0,0,0,0,0,0,0,0,0,0,0,0,0],"sum_hessian":[1.8387797E3,8.972836E2,9.4149603E2,5.5957306E2,3.3771063E2,1.0823745E2,8.3325854E2,1.8910406E2,3.7046896E2,3.1024243E2,2.746819E1,5.2148716E1,5.6088737E1,7.934419E1,7.5391437E2,1.405473E2,4.855677E1,1.14357346E2,2.5611163E2,2.7488116E2,3.536125E1,2.7370134E1,2.8718603E1,3.489947E1,4.444472E1,6.39101E2,1.1481338E2,2.4128082E1,2.4428688E1,1.730359E2,8.307572E1,2.3239525E2,4.2485924E1,1.8889544E1,1.6009928E1,2.6979046E1,1.7465675E1,5.596141E2,7.9486916E1],"tree_param":{"num_deleted":"0","num_feature":"8","num_nodes":"39","size_leaf_vector":"1"}},{"base_weights":[4.8134965E-3,1.1141267E0,-1.0660574E0,1.3401537E0,1.0540465E0,-2.4649881E-1,-1.1769223E0,1.6876438E-1,1.4545044E-1,1.2568929E0,9.786625E-1,9.316464E-2,-1.1723005E0,-9.8494613E-1,-1.2365057E0,1.6427329E-1,1.1820111E0,1.0471162E0,8.5435647E-1,-1.0921167E-1,-1.2885455E0,-7.3661005E-1,-1.2006055E0,-1.044875E0,-1.2735673E0,1.6392086E-1,1.3570288E-1,1.4242235E-1,1.1923619E-1,1.0874378E-1,4.8190918E-2,-1.9027276E-1,-1.23865E-1,-6.8864234E-2,-1.7307906E-1,-1.6748662E-1,-1.1943342E-1,-1.7607541E-1,-1.0468275E-1,-1.858885E-1,-1.5117326E-1],"categories":[0,1,3,4,7,13,0,1,2,3,4,5,7,8,9,11,12,13,14,15,1,13,3,4,5,0,1,3,4,5,6,7,9,10,11,12,14,0,1,2,3,4,6,1,3,4,5,6,10,12,13,14,0,1,2,3,4,5,6,7,9,10,11,12,13,14,15,0,1,3,4,5,6,7,8,9,10,11,13,14,0,1,2,3,1,3,4,5,0,1,2,3,5,6,0,1,2,3,4,5,6,7,8,9,10,11,12,13,14,0,1,2,3,5,6,1,6,2,1,2,0,1,2,3,4,1,2,3,4,5,6,7,9],"categories_nodes":[0,1,2,3,4,5,6,9,10,12,13,14,16,17,18,20,21,22,23,24],"categories_segments":[0,6,20,22,25,37,43,52,67,80,84,88,94,109,115,116,117,118,120,125],"categories_sizes":[6,14,2,3,12,6,9,15,13,4,4,6,15,6,1,1,1,2,5,8],"default_left":[1,1,1,1,1,1,1,0,0,1,1,0,1,1,1,0,1,1,1,0,1,1,1,1,1,0,0,0,0,0,0,0,0,0,0,0,0,0,0,0,0],"id":4,"left_children":[1,3,5,7,9,11,13,-1,-1,15,17,-1,19,21,23,-1,25,27,29,-1,31,33,35,37,39,-1,-1,-1,-1,-1,-1,-1,-1,-1,-1,-1,-1,-1,-1,-1,-1],"loss_changes":[2.1071104E3,1.1111328E1,8.185217E1,6.329346E-1,9.933899E0,1.0274424E2,8.470703E0,0E0,0E0,6.9384766E-1,3.8469849E0,0E0,1.1509628E0,9.7638855E0,3.6155396E0,0E0,3.1828308E-1,1.8703003E0,3.9479065E0,0E0,2.0802689E0,9.942196E0,3.3328857E0,6.7190323E0,1.2601929E0,0E0,0E0,0E0,0E0,0E0,0E0,0E0,0E0,0E0,0E0,0E0,0E0,0E0,0E0,0E0,0E0],"parents":[2147483647,0,0,1,1,2,2,3,3,4,4,5,5,6,6,9,9,10,10,12,12,13,13,14,14,16,16,17,17,18,18,20,20,21,21,22,22,23,23,24,24],"right_children":[2,4,6,8,10,12,14,-1,-1,16,18,-1,20,22,24,-1,26,28,30,-1,32,34,36,38,40,-1,-1,-1,-1,-1,-1,-1,-1,-1,-1,-1,-1,-1,-1,-1,-1],"split_conditions":[1E-45,1E-45,1E-45,1E-45,1E-45,1E-45,1E-45,1.6876438E-1,1.4545044E-1,1E-45,1E-45,9.316464E-2,1E-45,1E-45,1E-45,1.6427329E-1,1E-45,1E-45,1E-45,-1.0921167E-1,1E-45,1E-45,1E-45,1E-45,1E-45,1.6392086E-1,1.3570288E-1,1.4242235E-1,1.1923619E-1,1.0874378E-1,4.8190918E-2,-1.9027276E-1,-1.23865E-1,-6.8864234E-2,-1.7307906E-1,-1.6748662E-1,-1.1943342E-1,-1.7607541E-1,-1.0468275E-1,-1.858885E-1,-1.5117326E-1],"split_indices":[0,0,0,4,1,4,1,0,0,1,0,0,4,4,4,0,0,4,4,0,1,3,3,3,3,0,0,0,0,0,0,0,0,0,0,0,0,0,0,0,0],"split_type":[1,1,1,1,1,1,1,0,0,1,1,0,1,1,1,0,1,1,1,0,1,1,1,1,1,0,0,0,0,0,0,0,0,0,0,0,0,0,0,0,0],"sum_hessian":[1.7727562E3,8.707405E2,9.020157E2,1.8058168E2,6.901588E2,1.0767697E2,7.943387E2,1.182716E2,6.2310085E1,1.8484012E2,5.053187E2,5.1235916E1,5.644106E1,1.9025014E2,6.0408856E2,7.1621025E1,1.1321909E2,3.2343768E2,1.8188101E2,1.8617764E1,3.7823296E1,8.9467445E1,1.0078269E2,1.0029673E2,5.037918E2,2.2973034E1,9.0246056E1,9.016295E1,2.3327475E2,1.6337096E2,1.8510052E1,1.6486916E1,2.133638E1,7.329145E1,1.6175993E1,5.079443E1,4.9988266E1,2.8345512E1,7.195122E1,2.589571E1,4.7789612E2],"tree_param":{"num_deleted":"0","num_feature":"8","num_nodes":"41","size_leaf_vector":"1"}},{"base_weights":[-1.156524E-3,1.0173397E0,-9.8528636E-1,1.5188402E-1,9.5492345E-1,-1.9787106E-1,-1.0955914E0,1.0223203E0,8.2481766E-1,9.358236E-2,-1.1581249E0,-7.649945E-1,-1.1306062E0,1.0685955E0,8.387909E-1,8.704091E-1,5.1187582E-2,-9.309763E-2,-1.6591406E-1,-4.7717776E-2,-9.204688E-1,-7.9555E-1,-1.158026E0,1.3615166E-1,1.1815948E-1,1.2417159E-1,5.0821867E-2,1.1605668E-1,9.0954326E-2,-1.22774735E-1,-8.802107E-2,-1.1711045E-1,-7.956861E-2,-1.3037829E-1,-1.5218188E-1],"categories":[0,1,3,4,7,13,0,1,2,3,4,5,7,8,9,11,12,13,14,15,1,13,0,1,3,4,5,6,7,8,9,10,11,13,14,0,1,2,3,1,2,3,4,1,0,1,2,3,4,0,1,2,3,4,5,1,2,4,5,6,7,9,10,0,1,3,6,1,2,3,5,1,3,0,1,2,0,1,2,3,1,2,5],"categories_nodes":[0,1,2,4,5,6,8,10,11,12,13,14,15,20,21,22],"categories_segments":[0,6,20,22,35,39,43,44,49,55,63,67,71,73,76,80],"categories_sizes":[6,14,2,13,4,4,1,5,6,8,4,4,2,3,4,3],"default_left":[1,1,1,0,1,1,1,0,1,0,1,1,1,1,1,1,0,0,0,0,1,1,1,0,0,0,0,0,0,0,0,0,0,0,0],"id":5,"left_children":[1,3,5,-1,7,9,11,13,15,-1,17,19,21,23,25,27,-1,-1,-1,-1,29,31,33,-1,-1,-1,-1,-1,-1,-1,-1,-1,-1,-1,-1],"loss_changes":[1.6896504E3,1.209198E1,7.435016E1,0E0,5.379822E0,9.97749E1,8.261353E0,3.2315369E0,3.9718323E0,0E0,4.0170975E0,4.0229454E0,5.765381E0,1.3209534E0,7.0223923E0,1.8388977E0,0E0,0E0,0E0,0E0,5.9048843E-1,9.3426895E-1,4.2702026E0,0E0,0E0,0E0,0E0,0E0,0E0,0E0,0E0,0E0,0E0,0E0,0E0],"parents":[2147483647,0,0,1,1,2,2,4,4,5,5,6,6,7,7,8,8,10,10,11,11,12,12,13,13,14,14,15,15,20,20,21,21,22,22],"right_children":[2,4,6,-1,8,10,12,14,16,-1,18,20,22,24,26,28,-1,-1,-1,-1,30,32,34,-1,-1,-1,-1,-1,-1,-1,-1,-1,-1,-1,-1],"split_conditions":[1E-45,1E-45,1E-45,1.5188402E-1,1E-45,1E-45,1E-45,1E0,1E-45,9.358236E-2,1E-45,1E-45,1E-45,1E-45,1E-45,1E-45,5.1187582E-2,-9.309763E-2,-1.6591406E-1,-4.7717776E-2,1E-45,1E-45,1E-45,1.3615166E-1,1.1815948E-1,1.2417159E-1,5.0821867E-2,1.1605668E-1,9.0954326E-2,-1.22774735E-1,-8.802107E-2,-1.1711045E-1,-7.956861E-2,-1.3037829E-1,-1.5218188E-1],"split_indices":[0,0,0,0,0,5,5,6,4,0,4,3,3,4,4,5,0,0,0,0,4,4,4,0,0,0,0,0,0,0,0,0,0,0,0],"split_type":[1,1,1,0,1,1,1,0,1,0,1,1,1,1,1,1,0,0,0,0,1,1,1,0,0,0,0,0,0,0,0,0,0,0,0],"sum_hessian":[1.6847104E3,8.2788983E2,8.568206E2,1.6570067E2,6.6218915E2,1.0545629E2,7.513643E2,4.3392657E2,2.2826256E2,5.23417E1,5.311459E1,7.3070305E1,6.78294E2,3.445922E2,8.933438E1,2.0432031E2,2.3942253E1,2.0275991E1,3.2838596E1,2.2233381E1,5.083693E1,5.2463524E1,6.258305E2,1.9440796E2,1.5018423E2,6.043025E1,2.8904129E1,1.0951864E2,9.4801674E1,3.1686806E1,1.9150122E1,2.1123787E1,3.1339737E1,3.745448E2,2.5128568E2],"tree_param":{"num_deleted":"0","num_feature":"8","num_nodes":"35","size_leaf_vector":"1"}},{"base_weights":[2.1023287E-3,9.471075E-1,-9.1761214E-1,1.1740545E0,8.9033747E-1,-2.3403496E-1,-1.0138732E0,1.2419814E0,1.0440638E0,1.0935029E0,8.165541E-1,8.092608E-2,-1.1429245E0,-6.3248646E-1,-1.0554787E0,1.567646E-1,1.3014294E-1,1.0791087E-1,1.3727471E-1,1.4495309E-1,1.0191065E0,9.01877E-1,7.3623323E-1,-1.571835E-1,-9.546445E-2,-4.3391687E-1,-1.0856076E-1,-6.58514E-1,-1.089973E0,1.5803376E-1,1.14964105E-1,1.2501496E-1,9.335896E-2,1.0175335E-1,6.9609456E-2,-8.150417E-2,-7.7227084E-3,-9.780636E-2,-4.254988E-2,-1.2607427E-1,-1.5572797E-1],"categories":[0,1,3,4,7,13,0,1,2,3,4,5,7,8,9,11,12,13,14,15,1,13,3,4,5,0,1,3,4,5,6,7,9,10,11,12,14,0,1,2,3,1,2,3,4,0,1,2,3,4,5,7,8,9,10,11,12,13,14,15,0,1,2,3,0,1,2,3,4,5,6,7,9,10,11,12,13,14,15,0,1,5,6,3,0,1,6,1,2,4,5,6,7,9,10,0,1,3,4,0,1,2,3,4,5,6,7,8,9,10,11,13,14,1,3,0,1,2,0,1,2,3,4,6,7,10],"categories_nodes":[0,1,2,3,4,5,6,7,8,9,10,12,13,14,20,21,22,25,27,28],"categories_segments":[0,6,20,22,25,37,41,45,60,64,79,83,84,87,95,99,113,115,118,123],"categories_sizes":[6,14,2,3,12,4,4,15,4,15,4,1,3,8,4,14,2,3,5,3],"default_left":[1,1,1,1,1,1,1,1,1,1,1,0,1,1,1,0,0,0,0,0,1,1,1,0,0,1,0,1,1,0,0,0,0,0,0,0,0,0,0,0,0],"id":6,"left_children":[1,3,5,7,9,11,13,15,17,19,21,-1,23,25,27,-1,-1,-1,-1,-1,29,31,33,-1,-1,35,-1,37,39,-1,-1,-1,-1,-1,-1,-1,-1,-1,-1,-1,-1],"loss_changes":[1.398918E3,9.694214E0,5.3550232E1,7.2743225E-1,9.094147E0,8.3938286E1,1.1001038E1,2.7233887E-1,2.9445267E-1,7.7479553E-1,2.8766785E0,0E0,2.382759E0,3.640396E0,8.447632E0,0E0,0E0,0E0,0E0,0E0,1.3007278E0,3.4830017E0,3.9797668E0,0E0,0E0,3.7844853E0,0E0,2.339878E0,4.344055E0,0E0,0E0,0E0,0E0,0E0,0E0,0E0,0E0,0E0,0E0,0E0,0E0],"parents":[2147483647,0,0,1,1,2,2,3,3,4,4,5,5,6,6,7,7,8,8,9,9,10,10,12,12,13,13,14,14,20,20,21,21,22,22,25,25,27,27,28,28],"right_children":[2,4,6,8,10,12,14,16,18,20,22,-1,24,26,28,-1,-1,-1,-1,-1,30,32,34,-1,-1,36,-1,38,40,-1,-1,-1,-1,-1,-1,-1,-1,-1,-1,-1,-1],"split_conditions":[1E-45,1E-45,1E-45,1E-45,1E-45,1E-45,1E-45,1E-45,1E-45,1E-45,1E-45,8.092608E-2,1E-45,1E-45,1E-45,1.567646E-1,1.3014294E-1,1.0791087E-1,1.3727471E-1,1.4495309E-1,1E-45,1E-45,1E-45,-1.571835E-1,-9.546445E-2,1E-45,-1.0856076E-1,1E-45,1E-45,1.5803376E-1,1.14964105E-1,1.2501496E-1,9.335896E-2,1.0175335E-1,6.9609456E-2,-8.150417E-2,-7.7227084E-3,-9.780636E-2,-4.254988E-2,-1.2607427E-1,-1.5572797E-1],"split_indices":[0,0,0,4,1,5,5,0,5,1,4,0,5,1,3,0,0,0,0,0,5,0,5,0,0,4,0,1,3,0,0,0,0,0,0,0,0,0,0,0,0],"split_type":[1,1,1,1,1,1,1,1,1,1,1,0,1,1,1,0,0,0,0,0,1,1,1,0,0,1,0,1,1,0,0,0,0,0,0,0,0,0,0,0,0],"sum_hessian":[1.608544E3,7.9335815E2,8.151857E2,1.5674959E2,6.366086E2,1.0084195E2,7.143438E2,1.00103355E2,5.664624E1,1.6773453E2,4.6887405E2,5.0536148E1,5.03058E1,7.107385E1,6.4326996E2,6.9582275E1,3.0521078E1,2.4694307E1,3.1951931E1,6.388558E1,1.0384895E2,2.2483795E2,2.4403609E2,3.3260376E1,1.7045425E1,4.1739475E1,2.9334373E1,5.224532E1,5.910246E2,1.650754E1,8.7341415E1,1.0540682E2,1.1943113E2,1.4233142E2,1.01704666E2,2.4890198E1,1.6849277E1,3.407286E1,1.8172459E1,4.94114E2,9.691061E1],"tree_param":{"num_deleted":"0","num_feature":"8","num_nodes":"41","size_leaf_vector":"1"}},{"base_weights":[-4.1930713E-3,8.741709E-1,-8.675065E-1,9.7104985E-1,7.2341835E-1,-2.1442707E-1,-9.630819E-1,1.3315283E-1,9.0449655E-1,7.6961935E-1,4.1738775E-1,6.634761E-2,-9.6368283E-1,-5.791857E-1,-1.0069379E0,1.366871E-1,8.0371386E-1,1.19168766E-1,7.2515005E-1,7.8526855E-2,2.7137225E-2,-7.911423E-2,-1.3356698E-1,-3.9349312E-1,-1.0081969E-1,-5.97758E-1,-1.0437155E0,1.05418794E-1,8.668387E-2,8.9752555E-2,7.301315E-2,-8.1880234E-2,-1.5116511E-2,-9.174931E-2,-3.5444062E-2,-1.1937466E-1,-1.4662522E-1],"categories":[0,1,3,4,7,13,0,1,3,4,5,7,8,9,11,12,13,14,1,13,0,1,2,3,4,5,7,8,9,11,12,13,14,15,3,0,1,2,3,1,2,3,4,0,1,2,3,4,5,6,7,9,10,11,12,13,14,1,2,3,4,0,1,2,3,4,5,7,8,9,10,11,12,13,14,15,0,1,2,6,0,1,6,1,2,4,5,6,7,9,10,0,1,2,3,4,5,6,7,8,9,10,11,12,13,14,0,1,2,3,4,5,6,7,4,6,7,9,10],"categories_nodes":[0,1,2,3,4,5,6,8,9,10,12,13,14,16,23,25,26],"categories_segments":[0,6,18,20,34,35,39,43,57,61,76,80,83,91,106,114,115],"categories_sizes":[6,12,2,14,1,4,4,14,4,15,4,3,8,15,8,1,4],"default_left":[1,1,1,1,1,1,1,0,1,1,1,0,1,1,1,0,1,0,0,0,0,0,0,1,0,1,1,0,0,0,0,0,0,0,0,0,0],"id":7,"left_children":[1,3,5,7,9,11,13,-1,15,17,19,-1,21,23,25,-1,27,-1,29,-1,-1,-1,-1,31,-1,33,35,-1,-1,-1,-1,-1,-1,-1,-1,-1,-1],"loss_changes":[1.1540447E3,1.0657593E1,4.779895E1,3.6403198E0,4.0350647E0,5.689341E1,1.0970642E1,0E0,6.7960052E0,2.167862E0,1.733644E0,0E0,1.8769417E0,3.191082E0,8.710388E0,0E0,9.9472046E-1,0E0,3.094864E-1,0E0,0E0,0E0,0E0,3.1593575E0,0E0,2.4203987E0,4.305664E0,0E0,0E0,0E0,0E0,0E0,0E0,0E0,0E0,0E0,0E0],"parents":[2147483647,0,0,1,1,2,2,3,3,4,4,5,5,6,6,8,8,9,9,10,10,12,12,13,13,14,14,16,16,18,18,23,23,25,25,26,26],"right_children":[2,4,6,8,10,12,14,-1,16,18,20,-1,22,24,26,-1,28,-1,30,-1,-1,-1,-1,32,-1,34,36,-1,-1,-1,-1,-1,-1,-1,-1,-1,-1],"split_conditions":[1E-45,1E-45,1E-45,1E-45,1E-45,1E-45,1E-45,1.3315283E-1,1E-45,1E-45,1E-45,6.634761E-2,1E-45,1E-45,1E-45,1.366871E-1,1E-45,1.19168766E-1,1E0,7.8526855E-2,2.7137225E-2,-7.911423E-2,-1.3356698E-1,1E-45,-1.0081969E-1,1E-45,1E-45,1.05418794E-1,8.668387E-2,8.9752555E-2,7.301315E-2,-8.1880234E-2,-1.5116511E-2,-9.174931E-2,-3.5444062E-2,-1.1937466E-1,-1.4662522E-1],"split_indices":[0,0,0,0,5,5,5,0,1,5,1,0,1,1,3,0,0,0,6,0,0,0,0,1,0,5,3,0,0,0,0,0,0,0,0,0,0],"split_type":[1,1,1,1,1,1,1,0,1,1,1,0,1,1,1,0,1,0,0,0,0,0,0,1,0,1,1,0,0,0,0,0,0,0,0,0,0],"sum_hessian":[1.5208691E3,7.538583E2,7.670108E2,4.572493E2,2.96609E2,9.813187E1,6.6887897E2,1.4743E2,3.098193E2,2.570311E2,3.957789E1,4.858121E1,4.955066E1,6.931977E1,5.9955914E2,9.218723E1,2.1763205E2,4.1181896E1,2.1584921E2,1.720205E1,2.237584E1,1.6998142E1,3.2552517E1,4.113687E1,2.8182903E1,5.01694E1,5.493898E2,1.1311228E2,1.04519775E2,1.8059741E2,3.5251797E1,1.945912E1,2.167775E1,3.1961842E1,1.820756E1,4.2844122E2,1.2094853E2],"tree_param":{"num_deleted":"0","num_feature":"8","num_nodes":"37","size_leaf_vector":"1"}},{"base_weights":[-6.4540545E-5,8.179344E-1,-8.024945E-1,8.924632E-1,6.312412E-1,-2.0178641E-1,-8.91994E-1,9.37952E-1,6.7014813E-1,6.7532724E-1,3.3981197E-2,5.8813624E-2,-1.1564709E0,-8.3917964E-1,-1.14455E0,1.3457677E-1,8.992009E-1,8.365519E-1,4.523504E-2,6.466958E-1,9.733083E-2,-1.7028548E-1,-1.1179986E-1,-7.0465285E-1,-9.574727E-1,-1.46485E-1,-1.1176449E-1,1.2679066E-1,9.793436E-2,8.442764E-2,1.2727574E-1,9.101006E-2,6.938496E-2,-7.153842E-2,-9.6099004E-2,-6.0130063E-2,-1.2278835E-1],"categories":[0,1,3,4,7,13,0,1,3,4,5,7,8,9,11,13,14,1,13,1,0,1,2,3,4,3,10,12,13,0,1,2,3,4,6,7,9,10,11,12,13,14,15,1,2,3,5,0,1,2,3,6,1,2,3,5,0,1,2,3,4,5,7,8,9,11,12,13,14,15,0,1,2,3,4,5,7,8,9,10,11,12,13,14,15,0,1,2,4,6,5,6,1,2,4,5,6,7,9],"categories_nodes":[0,1,2,4,5,6,7,8,9,12,13,16,17,19,23,24],"categories_segments":[0,6,17,19,20,25,29,43,47,51,52,56,70,85,90,92],"categories_sizes":[6,11,2,1,5,4,14,4,4,1,4,14,15,5,2,7],"default_left":[1,1,1,0,1,1,1,1,1,1,0,0,1,1,0,0,1,1,0,1,0,0,0,1,1,0,0,0,0,0,0,0,0,0,0,0,0],"id":8,"left_children":[1,3,5,7,9,11,13,15,17,19,-1,-1,21,23,25,-1,27,29,-1,31,-1,-1,-1,33,35,-1,-1,-1,-1,-1,-1,-1,-1,-1,-1,-1,-1],"loss_changes":[9.4671313E2,9.648743E0,3.9049866E1,4.8275757E0,3.0594254E0,6.299232E1,7.9595947E0,2.4456787E0,4.155407E0,4.3041992E-1,0E0,0E0,1.6873169E0,8.022736E0,1.13591E0,0E0,4.162781E0,1.288578E0,0E0,9.465027E-1,0E0,0E0,0E0,2.3276672E0,7.844528E0,0E0,0E0,0E0,0E0,0E0,0E0,0E0,0E0,0E0,0E0,0E0,0E0],"parents":[2147483647,0,0,1,1,2,2,3,3,4,4,5,5,6,6,7,7,8,8,9,9,12,12,13,13,14,14,16,16,17,17,19,19,23,23,24,24],"right_children":[2,4,6,8,10,12,14,16,18,20,-1,-1,22,24,26,-1,28,30,-1,32,-1,-1,-1,34,36,-1,-1,-1,-1,-1,-1,-1,-1,-1,-1,-1,-1],"split_conditions":[1E-45,1E-45,1E-45,1E0,1E-45,1E-45,1E-45,1E-45,1E-45,1E-45,3.3981197E-2,5.8813624E-2,1E-45,1E-45,1E0,1.3457677E-1,1E-45,1E-45,4.523504E-2,1E-45,9.733083E-2,-1.7028548E-1,-1.1179986E-1,1E-45,1E-45,-1.46485E-1,-1.1176449E-1,1.2679066E-1,9.793436E-2,8.442764E-2,1.2727574E-1,9.101006E-2,6.938496E-2,-7.153842E-2,-9.6099004E-2,-6.0130063E-2,-1.2278835E-1],"split_indices":[0,0,0,6,4,4,1,1,4,1,0,0,1,4,7,0,0,1,0,4,0,0,0,1,3,0,0,0,0,0,0,0,0,0,0,0,0],"split_type":[1,1,1,0,1,1,1,1,1,1,0,0,1,1,0,0,1,1,0,1,0,0,0,1,1,0,0,0,0,0,0,0,0,0,0,0,0],"sum_hessian":[1.4413018E3,7.137201E2,7.2758167E2,5.0871536E2,2.050047E2,9.456329E1,6.330184E2,4.209466E2,8.776878E1,1.8156429E2,2.344041E1,5.500163E1,3.956166E1,5.2534937E2,1.07669044E2,7.1665565E1,3.4928104E2,5.544279E1,3.2325993E1,1.5205751E2,2.9506786E1,1.72017E1,2.235996E1,2.4746185E2,2.7788748E2,7.844255E1,2.9226498E1,1.2131195E2,2.2796907E2,3.5842392E1,1.9600399E1,5.6967213E1,9.5090294E1,1.16243484E2,1.3121837E2,3.4502403E1,2.4338509E2],"tree_param":{"num_deleted":"0","num_feature":"8","num_nodes":"37","size_leaf_vector":"1"}},{"base_weights":[5.9625427E-3,7.6980776E-1,-7.528829E-1,1.0040987E0,7.1437407E-1,-3.7050042E-1,-8.395867E-1,1.0988076E0,8.244508E-1,9.289862E-1,6.254743E-1,3.0066726E-1,-9.8434734E-1,-4.0753573E-1,-8.927913E-1,1.410333E-1,1.0987014E-1,7.639767E-2,1.15855865E-1,9.7538877E-1,8.6029954E-2,7.563566E-1,5.673487E-1,1.15432344E-1,-7.9966374E-2,-1.6076122E-1,-8.5490996E-1,-1.3333089E-2,-6.418857E-1,-7.6690525E-1,-9.6841687E-1,1.2565339E-1,1.0437545E-1,1.1470943E-1,6.80758E-2,8.532685E-2,4.590357E-2,-3.8770497E-2,-1.3832402E-1,-9.1134496E-2,-6.171367E-2,-1.3394646E-1,-8.154463E-2,-1.0707583E-1,-1.4048475E-1],"categories":[0,1,3,4,7,13,0,1,2,3,4,5,7,8,9,11,12,13,14,15,1,2,3,4,5,6,7,9,3,4,5,0,1,3,4,5,6,7,10,11,12,14,0,1,2,3,1,2,3,4,0,1,2,3,4,5,7,8,9,10,11,12,13,14,15,0,1,2,3,0,3,0,1,2,5,6,0,1,2,3,4,6,0,1,2,3,4,5,6,7,0,1,2,3,2,4,5,6,7,9,0,1,3,4,5,6,7,10,11,12,13,14,15,0,2,3,4,1,3,0,1,6,0,1,2,3,0,1,2,3,4,5,6,7,8,9,10,11,2,5],"categories_nodes":[0,1,2,3,4,5,6,7,8,9,10,11,12,13,14,19,21,22,26,28,29,30],"categories_segments":[0,6,20,28,31,42,46,50,65,69,71,76,82,90,94,100,113,117,119,122,126,138],"categories_sizes":[6,14,8,3,11,4,4,15,4,2,5,6,8,4,6,13,4,2,3,4,12,2],"default_left":[1,1,1,1,1,1,1,1,1,1,1,1,1,1,1,0,0,0,0,1,0,1,1,0,0,0,1,0,1,1,1,0,0,0,0,0,0,0,0,0,0,0,0,0,0],"id":9,"left_children":[1,3,5,7,9,11,13,15,17,19,21,23,25,27,29,-1,-1,-1,-1,31,-1,33,35,-1,-1,-1,37,-1,39,41,43,-1,-1,-1,-1,-1,-1,-1,-1,-1,-1,-1,-1,-1,-1],"loss_changes":[7.923719E2,8.480743E0,2.2574524E1,1.73349E0,1.0246368E1,5.2746395E1,1.265271E1,5.908127E-1,9.112778E-1,1.2363586E0,2.7641754E0,3.9392704E1,2.465149E0,4.2844305E0,4.350708E0,0E0,0E0,0E0,0E0,5.131149E-1,0E0,4.2003937E0,7.086647E0,0E0,0E0,0E0,7.7153473E0,0E0,3.1659412E-1,5.4327774E0,4.275543E0,0E0,0E0,0E0,0E0,0E0,0E0,0E0,0E0,0E0,0E0,0E0,0E0,0E0,0E0],"parents":[2147483647,0,0,1,1,2,2,3,3,4,4,5,5,6,6,7,7,8,8,9,9,10,10,11,11,12,12,13,13,14,14,19,19,21,21,22,22,26,26,28,28,29,29,30,30],"right_children":[2,4,6,8,10,12,14,16,18,20,22,24,26,28,30,-1,-1,-1,-1,32,-1,34,36,-1,-1,-1,38,-1,40,42,44,-1,-1,-1,-1,-1,-1,-1,-1,-1,-1,-1,-1,-1,-1],"split_conditions":[1E-45,1E-45,1E-45,1E-45,1E-45,1E-45,1E-45,1E-45,1E-45,1E-45,1E-45,1E-45,1E-45,1E-45,1E-45,1.410333E-1,1.0987014E-1,7.639767E-2,1.15855865E-1,1E-45,8.6029954E-2,1E-45,1E-45,1.15432344E-1,-7.9966374E-2,-1.6076122E-1,1E-45,-1.3333089E-2,1E-45,1E-45,1E-45,1.2565339E-1,1.0437545E-1,1.1470943E-1,6.80758E-2,8.532685E-2,4.590357E-2,-3.8770497E-2,-1.3832402E-1,-9.1134496E-2,-6.171367E-2,-1.3394646E-1,-8.154463E-2,-1.0707583E-1,-1.4048475E-1],"split_indices":[0,0,3,4,1,5,5,0,5,4,4,4,1,4,3,0,0,0,0,1,0,5,5,0,0,0,1,0,3,1,4,0,0,0,0,0,0,0,0,0,0,0,0,0,0],"split_type":[1,1,1,1,1,1,1,1,1,1,1,1,1,1,1,0,0,0,0,1,0,1,1,0,0,0,1,0,1,1,1,0,0,0,0,0,0,0,0,0,0,0,0,0,0],"sum_hessian":[1.3659977E3,6.8075476E2,6.85243E2,1.2858868E2,5.521661E2,1.2715547E2,5.5808746E2,8.2498825E1,4.608986E1,1.6032555E2,3.918405E2,6.0862003E1,6.6293465E1,6.167539E1,4.964121E2,5.6990345E1,2.5508482E1,2.0727514E1,2.5362343E1,1.3021602E2,3.0109537E1,1.18623344E2,2.732172E2,3.6172596E1,2.4689407E1,1.6532532E1,4.9760933E1,2.7553274E1,3.4122116E1,1.8842293E2,3.0798917E2,7.6329185E1,5.3886826E1,5.7183468E1,6.1439873E1,1.5385828E2,1.1935892E2,1.8136362E1,3.1624573E1,1.6633577E1,1.7488537E1,3.7185146E1,1.5123778E2,2.2356915E2,8.442002E1],"tree_param":{"num_deleted":"0","num_feature":"8","num_nodes":"45","size_leaf_vector":"1"}},{"base_weights":[-4.2295884E-3,7.061287E-1,-7.129236E-1,9.8144627E-1,6.430854E-1,-3.823575E-1,-8.1566006E-1,1.4132448E-1,1.1343818E-1,6.880857E-1,4.0882188E-1,3.6215892E-1,-7.8557986E-1,-2.8772396E-1,-8.8242203E-1,7.701652E-1,5.617839E-1,5.943368E-1,1.444894E-1,1.1622716E-1,-9.5381096E-2,-1.0011978E0,-6.0067046E-1,3.5483518E-3,-6.47939E-2,-7.8450274E-1,-1.0335778E0,1.0244797E-1,7.679832E-2,7.718402E-2,3.1641293E-2,9.680388E-2,5.1702306E-2,2.7895519E-3,3.1684443E-2,-6.661741E-2,-1.604976E-1,-4.8237335E-2,-8.5520245E-2,-8.712191E-2,-1.0584784E-1,-1.0976628E-1,-1.3775384E-1],"categories":[0,1,3,4,7,13,0,1,2,3,4,5,7,8,9,11,12,13,14,15,1,2,4,5,6,7,9,0,1,2,3,4,5,0,1,2,3,4,6,1,2,3,4,0,1,6,1,2,3,5,0,1,2,3,0,3,6,0,1,2,3,1,2,5,0,1,3,4,5,6,7,8,9,10,11,13,14,1,0,1,2,3,4,5,6,7,8,9,10,11,13,14,15,10,3,6,2,3,2,4],"categories_nodes":[0,1,2,3,5,6,9,10,11,12,13,14,15,16,17,21,22,25,26],"categories_segments":[0,6,20,27,33,39,43,46,50,54,57,61,64,77,78,93,94,96,98],"categories_sizes":[6,14,7,6,6,4,3,4,4,3,4,3,13,1,15,1,2,2,2],"default_left":[1,1,1,1,0,1,1,0,0,1,1,1,1,1,1,1,1,1,0,0,0,1,1,0,0,1,1,0,0,0,0,0,0,0,0,0,0,0,0,0,0,0,0],"id":10,"left_children":[1,3,5,7,9,11,13,-1,-1,15,17,19,21,23,25,27,29,31,33,-1,-1,35,37,-1,-1,39,41,-1,-1,-1,-1,-1,-1,-1,-1,-1,-1,-1,-1,-1,-1,-1,-1],"loss_changes":[6.507325E2,1.0881195E1,2.1813873E1,3.1462097E-1,5.40744E0,4.648915E1,1.725119E1,0E0,0E0,4.3504486E0,4.1779814E0,3.8499283E1,3.6906471E0,4.4803433E0,6.06192E0,2.582367E0,4.1129913E0,1.5684643E0,5.184047E-1,0E0,0E0,6.413891E0,1.0713291E0,0E0,0E0,1.2104034E0,1.7709656E0,0E0,0E0,0E0,0E0,0E0,0E0,0E0,0E0,0E0,0E0,0E0,0E0,0E0,0E0,0E0,0E0],"parents":[2147483647,0,0,1,1,2,2,3,3,4,4,5,5,6,6,9,9,10,10,11,11,12,12,13,13,14,14,15,15,16,16,17,17,18,18,21,21,22,22,25,25,26,26],"right_children":[2,4,6,8,10,12,14,-1,-1,16,18,20,22,24,26,28,30,32,34,-1,-1,36,38,-1,-1,40,42,-1,-1,-1,-1,-1,-1,-1,-1,-1,-1,-1,-1,-1,-1,-1,-1],"split_conditions":[1E-45,1E-45,1E-45,1E-45,1E0,1E-45,1E-45,1.4132448E-1,1.1343818E-1,1E-45,1E-45,1E-45,1E-45,1E-45,1E-45,1E-45,1E-45,1E-45,1E0,1.1622716E-1,-9.5381096E-2,1E-45,1E-45,3.5483518E-3,-6.47939E-2,1E-45,1E-45,1.0244797E-1,7.679832E-2,7.718402E-2,3.1641293E-2,9.680388E-2,5.1702306E-2,2.7895519E-3,3.1684443E-2,-6.661741E-2,-1.604976E-1,-4.8237335E-2,-8.5520245E-2,-8.712191E-2,-1.0584784E-1,-1.0976628E-1,-1.3775384E-1],"split_indices":[0,0,3,4,6,4,5,0,0,4,4,5,4,4,4,0,5,0,7,0,0,3,4,0,0,5,5,0,0,0,0,0,0,0,0,0,0,0,0,0,0,0,0],"split_type":[1,1,1,1,0,1,1,0,0,1,1,1,1,1,1,1,1,1,0,0,0,1,1,0,0,1,1,0,0,0,0,0,0,0,0,0,0,0,0,0,0,0,0],"sum_hessian":[1.2915983E3,6.4504034E2,6.465579E2,1.1880593E2,5.262344E2,1.5387135E2,4.9268658E2,1.7016699E1,1.0178923E2,4.4060675E2,8.562766E1,5.407309E1,9.979826E1,5.5615948E1,4.3707065E2,2.654825E2,1.7512422E2,4.9938168E1,3.5689495E1,3.5557163E1,1.8515926E1,4.503791E1,5.4760353E1,2.4763817E1,3.085213E1,2.6715094E2,1.699197E2,1.6193782E2,1.035447E2,1.376239E2,3.7500313E1,2.1014652E1,2.8923515E1,1.7986996E1,1.77025E1,1.9817919E1,2.5219994E1,2.0364702E1,3.439565E1,1.6693677E2,1.0021417E2,8.4009415E1,8.591028E1],"tree_param":{"num_deleted":"0","num_feature":"8","num_nodes":"43","size_leaf_vector":"1"}},{"base_weights":[-9.888862E-3,6.4775586E-1,-6.733015E-1,7.290831E-1,4.530428E-1,-3.2481804E-1,-7.868365E-1,9.0875274E-1,6.672753E-1,5.209605E-1,1.7736627E-2,4.041878E-1,-7.336614E-1,-2.4730276E-1,-8.5838133E-1,7.7066374E-1,1.0074216E0,7.1907365E-1,4.7220042E-1,6.6400045E-1,3.837732E-1,1.102454E-1,-6.386786E-2,-9.01164E-1,-4.5926434E-1,4.2439164E-3,-5.7734735E-2,-7.869935E-1,-1.0468208E0,1.113533E-1,6.988129E-2,1.2784548E-1,1.02577664E-1,9.5513545E-2,7.473638E-2,9.303039E-2,2.9327495E-2,6.630337E-2,1.038397E-1,2.6633453E-2,5.7465516E-2,-6.382766E-2,-1.4249702E-1,-1.5864506E-2,-9.7368374E-2,-8.904457E-2,-1.2834631E-1,-1.1049457E-1,-1.3339052E-1],"categories":[0,1,3,4,7,13,0,1,3,4,5,7,8,9,11,13,14,1,2,4,5,6,7,9,0,1,2,3,4,5,7,8,9,11,12,13,14,15,3,0,1,2,3,4,6,1,2,3,4,1,2,3,5,6,0,1,4,6,0,1,2,3,0,6,0,1,2,3,2,5,1,2,3,4,5,6,0,1,2,3,4,5,7,8,9,10,11,12,13,14,15,0,1,3,6,0,1,2,3,5,0,2,0,10,0,1,2,0],"categories_nodes":[0,1,2,3,4,5,6,7,9,11,12,13,14,15,16,17,18,19,20,23,24,27,28],"categories_segments":[0,6,17,24,38,39,45,49,54,58,62,64,68,70,76,91,95,100,102,103,104,106,107],"categories_sizes":[6,11,7,14,1,6,4,5,4,4,2,4,2,6,15,4,5,2,1,1,2,1,1],"default_left":[1,1,1,1,1,1,1,1,0,1,0,1,1,1,1,1,1,1,1,1,1,0,0,1,1,0,0,1,1,0,0,0,0,0,0,0,0,0,0,0,0,0,0,0,0,0,0,0,0],"id":11,"left_children":[1,3,5,7,9,11,13,15,17,19,-1,21,23,25,27,29,31,33,35,37,39,-1,-1,41,43,-1,-1,45,47,-1,-1,-1,-1,-1,-1,-1,-1,-1,-1,-1,-1,-1,-1,-1,-1,-1,-1,-1,-1],"loss_changes":[5.353505E2,9.587555E0,2.4035706E1,4.5067444E0,3.7543526E0,4.514791E1,1.7660309E1,1.0965881E0,3.1057892E0,2.8002625E0,0E0,2.6411465E1,4.2410507E0,3.60348E0,5.043976E0,1.1327248E0,7.279968E-2,1.622406E0,4.6923094E0,1.3833485E0,1.1277838E0,0E0,0E0,5.9479713E0,4.2759013E0,0E0,0E0,3.461792E0,3.594818E-1,0E0,0E0,0E0,0E0,0E0,0E0,0E0,0E0,0E0,0E0,0E0,0E0,0E0,0E0,0E0,0E0,0E0,0E0,0E0,0E0],"parents":[2147483647,0,0,1,1,2,2,3,3,4,4,5,5,6,6,7,7,8,8,9,9,11,11,12,12,13,13,14,14,15,15,16,16,17,17,18,18,19,19,20,20,23,23,24,24,27,27,28,28],"right_children":[2,4,6,8,10,12,14,16,18,20,-1,22,24,26,28,30,32,34,36,38,40,-1,-1,42,44,-1,-1,46,48,-1,-1,-1,-1,-1,-1,-1,-1,-1,-1,-1,-1,-1,-1,-1,-1,-1,-1,-1,-1],"split_conditions":[1E-45,1E-45,1E-45,1E-45,1E-45,1E-45,1E-45,1E-45,1E0,1E-45,1.7736627E-2,1E-45,1E-45,1E-45,1E-45,1E-45,1E-45,1E-45,1E-45,1E-45,1E-45,1.102454E-1,-6.386786E-2,1E-45,1E-45,4.2439164E-3,-5.7734735E-2,1E-45,1E-45,1.113533E-1,6.988129E-2,1.2784548E-1,1.02577664E-1,9.5513545E-2,7.473638E-2,9.303039E-2,2.9327495E-2,6.630337E-2,1.038397E-1,2.6633453E-2,5.7465516E-2,-6.382766E-2,-1.4249702E-1,-1.5864506E-2,-9.7368374E-2,-8.904457E-2,-1.2834631E-1,-1.1049457E-1,-1.3339052E-1],"split_indices":[0,0,3,0,5,4,5,4,6,4,0,5,4,4,4,4,0,4,4,5,2,0,0,3,0,0,0,5,2,0,0,0,0,0,0,0,0,0,0,0,0,0,0,0,0,0,0,0,0],"split_type":[1,1,1,1,1,1,1,1,0,1,0,1,1,1,1,1,1,1,1,1,1,0,0,1,1,0,0,1,1,0,0,0,0,0,0,0,0,0,0,0,0,0,0,0,0,0,0,0,0],"sum_hessian":[1.2260444E3,6.157023E2,6.103422E2,4.333159E2,1.823864E2,1.504689E2,4.598733E2,1.091287E2,3.2418716E2,1.4891782E2,3.346858E1,5.406452E1,9.640439E1,5.4110153E1,4.0576315E2,4.7343994E1,6.178471E1,2.5508388E2,6.9103294E1,7.1944534E1,7.697329E1,3.493222E1,1.9132301E1,5.9139854E1,3.7264534E1,2.4629747E1,2.9480408E1,2.961841E2,1.09579025E2,2.4929321E1,2.2414673E1,4.3191196E1,1.8593515E1,1.4195882E2,1.1312507E2,2.925539E1,3.9847904E1,4.7214794E1,2.472974E1,2.8888987E1,4.80843E1,2.6293629E1,3.2846226E1,1.9631983E1,1.763255E1,2.5564943E2,4.053469E1,3.8574913E1,7.100411E1],"tree_param":{"num_deleted":"0","num_feature":"8","num_nodes":"49","size_leaf_vector":"1"}},{"base_weights":[6.6060647E-3,6.0696334E-1,-6.059263E-1,7.2236335E-1,4.4423229E-1,-5.376752E-1,-9.811673E-1,8.7459993E-1,6.545228E-1,5.049119E-1,7.7194035E-2,-2.8961092E-2,-6.2810457E-1,-1.057258E0,-8.9788586E-2,7.2432363E-1,9.7953814E-1,9.483216E-1,5.424192E-1,6.663677E-1,4.0363193E-1,4.080855E-2,-2.0165352E-2,5.660016E-2,-9.984471E-2,-2.3699877E-1,-6.807369E-1,-1.4224821E-1,-1.1701287E-1,1.08138E-1,5.9695028E-2,1.2743534E-1,1.0499948E-1,1.2205937E-1,9.788232E-2,7.512425E-2,5.5052113E-2,6.984488E-2,1.0703453E-1,6.376522E-2,1.564164E-2,1.7857758E-2,-7.762153E-2,-6.8182915E-2,-9.4769E-2],"categories":[0,1,3,4,7,13,0,1,3,4,5,7,8,9,11,12,13,14,3,10,12,13,0,1,2,3,4,5,7,8,9,11,12,13,14,15,3,1,13,1,2,3,5,6,0,1,2,3,4,5,6,7,9,10,11,12,13,14,0,1,2,3,6,0,1,2,3,4,5,7,8,9,10,11,12,13,14,15,0,1,2,3,4,1,2,3,4,0,1,2,3,13,1,2,3,4,5,6,0,1,2,3,4,5,7,8,9,10,11,12,13,14,15,0,1,2,3,4,5,6,7,9,10,11,12,13,14,15,0,1,2,3,4,5,6,7,8,9,10,11,12,13,14,0,2,1,3,0,1,6,1,2,3,5],"categories_nodes":[0,1,2,3,4,5,7,8,9,10,11,12,13,15,16,17,18,19,20,25,26],"categories_segments":[0,6,18,22,36,37,39,44,58,63,78,83,87,92,98,113,128,143,145,147,150],"categories_sizes":[6,12,4,14,1,2,5,14,5,15,5,4,5,6,15,15,15,2,2,3,4],"default_left":[1,1,1,1,1,1,0,1,1,1,1,1,1,1,0,1,1,1,1,1,1,0,0,0,0,1,1,0,0,0,0,0,0,0,0,0,0,0,0,0,0,0,0,0,0],"id":12,"left_children":[1,3,5,7,9,11,13,15,17,19,21,23,25,27,-1,29,31,33,35,37,39,-1,-1,-1,-1,41,43,-1,-1,-1,-1,-1,-1,-1,-1,-1,-1,-1,-1,-1,-1,-1,-1,-1,-1],"loss_changes":[4.2832437E2,1.0880737E1,1.4494415E1,3.2524567E0,5.4435196E0,2.2480698E1,1.1680374E0,1.2819672E0,7.624771E0,3.302597E0,2.3030782E0,2.996023E1,8.46051E0,1.0345459E-1,0E0,1.5585041E0,3.907013E-2,1.6449356E-1,1.0680046E0,1.2720718E0,4.488907E0,0E0,0E0,0E0,0E0,7.926945E0,4.2344513E0,0E0,0E0,0E0,0E0,0E0,0E0,0E0,0E0,0E0,0E0,0E0,0E0,0E0,0E0,0E0,0E0,0E0,0E0],"parents":[2147483647,0,0,1,1,2,2,3,3,4,4,5,5,6,6,7,7,8,8,9,9,10,10,11,11,12,12,13,13,15,15,16,16,17,17,18,18,19,19,20,20,25,25,26,26],"right_children":[2,4,6,8,10,12,14,16,18,20,22,24,26,28,-1,30,32,34,36,38,40,-1,-1,-1,-1,42,44,-1,-1,-1,-1,-1,-1,-1,-1,-1,-1,-1,-1,-1,-1,-1,-1,-1,-1],"split_conditions":[1E-45,1E-45,1E-45,1E-45,1E-45,1E-45,1E0,1E-45,1E-45,1E-45,1E-45,1E-45,1E-45,1E-45,-8.9788586E-2,1E-45,1E-45,1E-45,1E-45,1E-45,1E-45,4.080855E-2,-2.0165352E-2,5.660016E-2,-9.984471E-2,1E-45,1E-45,-1.4224821E-1,-1.1701287E-1,1.08138E-1,5.9695028E-2,1.2743534E-1,1.0499948E-1,1.2205937E-1,9.788232E-2,7.512425E-2,5.5052113E-2,6.984488E-2,1.0703453E-1,6.376522E-2,1.564164E-2,1.7857758E-2,-7.762153E-2,-6.8182915E-2,-9.4769E-2],"split_indices":[0,0,1,0,5,0,7,4,1,4,1,4,5,1,0,4,1,1,0,5,5,0,0,0,0,1,4,0,0,0,0,0,0,0,0,0,0,0,0,0,0,0,0,0,0],"split_type":[1,1,1,1,1,1,0,1,1,1,1,1,1,1,0,1,1,1,1,1,1,0,0,0,0,1,1,0,0,0,0,0,0,0,0,0,0,0,0,0,0,0,0,0,0],"sum_hessian":[1.1637454E3,5.8771857E2,5.7602673E2,3.4284085E2,2.4487769E2,4.8842422E2,8.7602516E1,1.03820885E2,2.3901997E2,2.0996713E2,3.4910545E1,7.3824326E1,4.145999E2,6.479265E1,2.2809875E1,4.433932E1,5.9481564E1,6.49669E1,1.7405307E2,7.984205E1,1.3012509E2,1.6772814E1,1.8137733E1,4.559768E1,2.8226646E1,4.9512592E1,3.650873E2,2.3326412E1,4.1466232E1,2.4233135E1,2.0106186E1,3.1307188E1,2.8174376E1,4.1173885E1,2.3793018E1,8.655542E1,8.749766E1,5.9085876E1,2.0756172E1,8.861263E1,4.1512455E1,2.5634663E1,2.3877932E1,1.788706E2,1.862167E2],"tree_param":{"num_deleted":"0","num_feature":"8","num_nodes":"45","size_leaf_vector":"1"}},{"base_weights":[1.5348872E-2,5.7916194E-1,-5.633089E-1,8.5134816E-1,5.2296627E-1,-2.7745062E-1,-6.579625E-1,7.0687217E-1,9.567665E-1,7.895688E-1,4.4895655E-1,3.0502257E-1,-6.1822146E-1,-2.064279E-1,-7.243385E-1,1.07218854E-1,6.0083106E-2,1.277431E-1,9.833171E-2,9.264333E-1,6.904517E-1,5.9085137E-1,3.8497874E-1,9.5708646E-2,-6.1787345E-2,-1.1805359E-1,-4.8795342E-1,2.1801995E-4,-6.31462E-2,-6.2236434E-1,-8.906636E-1,1.2573834E-1,8.957387E-2,6.463921E-2,1.2273389E-1,9.385191E-2,5.1876582E-2,6.177986E-2,2.6633479E-2,-2.2096274E-2,-7.6224595E-2,-1.4679725E-2,1.4631244E-2,-1.09344274E-1,-6.678112E-2,-8.612628E-2,-1.2806472E-1],"categories":[0,1,3,4,7,13,0,1,2,3,4,5,7,8,9,11,12,13,14,15,1,2,4,5,6,7,9,1,2,3,5,6,0,1,3,4,5,6,7,9,10,11,12,13,14,0,1,2,3,4,6,1,2,3,4,1,2,3,4,5,6,0,1,2,3,4,5,7,8,9,10,11,12,13,14,15,0,1,2,3,4,5,6,7,9,10,11,12,13,14,15,0,1,2,5,6,0,1,2,3,0,1,2,3,4,5,6,0,1,6,1,2,5,0,1,2,3,0,2,0,2,3,4,1,3,0,1,6,0,1,2,3,4,5,1,2,4,5,2,4],"categories_nodes":[0,1,2,3,4,5,6,7,8,9,10,11,12,13,14,19,20,21,22,26,27,29,30],"categories_segments":[0,6,20,27,32,45,51,55,61,76,91,96,100,107,110,113,117,119,123,125,128,134,138],"categories_sizes":[6,14,7,5,13,6,4,6,15,15,5,4,7,3,3,4,2,4,2,3,6,4,2],"default_left":[1,1,1,1,1,1,1,1,1,1,1,1,1,1,1,0,0,0,0,1,1,1,1,0,0,0,1,1,0,1,1,0,0,0,0,0,0,0,0,0,0,0,0,0,0,0,0],"id":13,"left_children":[1,3,5,7,9,11,13,15,17,19,21,23,25,27,29,-1,-1,-1,-1,31,33,35,37,-1,-1,-1,39,41,-1,43,45,-1,-1,-1,-1,-1,-1,-1,-1,-1,-1,-1,-1,-1,-1,-1,-1],"loss_changes":[3.629237E2,8.388962E0,1.4758789E1,1.1097488E0,9.057739E0,2.7376362E1,1.2270782E1,1.3894787E0,3.4607315E-1,1.0435448E0,3.22052E0,2.0733791E1,3.8681412E0,3.5265226E0,5.8049927E0,0E0,0E0,0E0,0E0,4.8820496E-1,2.7791061E0,3.2526207E0,5.3080482E0,0E0,0E0,0E0,2.8230352E0,4.9715123E-1,0E0,4.0521545E0,3.7233887E0,0E0,0E0,0E0,0E0,0E0,0E0,0E0,0E0,0E0,0E0,0E0,0E0,0E0,0E0,0E0,0E0],"parents":[2147483647,0,0,1,1,2,2,3,3,4,4,5,5,6,6,7,7,8,8,9,9,10,10,11,11,12,12,13,13,14,14,19,19,20,20,21,21,22,22,26,26,27,27,29,29,30,30],"right_children":[2,4,6,8,10,12,14,16,18,20,22,24,26,28,30,-1,-1,-1,-1,32,34,36,38,-1,-1,-1,40,42,-1,44,46,-1,-1,-1,-1,-1,-1,-1,-1,-1,-1,-1,-1,-1,-1,-1,-1],"split_conditions":[1E-45,1E-45,1E-45,1E-45,1E-45,1E-45,1E-45,1E-45,1E-45,1E-45,1E-45,1E-45,1E-45,1E-45,1E-45,1.07218854E-1,6.0083106E-2,1.277431E-1,9.833171E-2,1E-45,1E-45,1E-45,1E-45,9.5708646E-2,-6.1787345E-2,-1.1805359E-1,1E-45,1E-45,-6.31462E-2,1E-45,1E-45,1.2573834E-1,8.957387E-2,6.463921E-2,1.2273389E-1,9.385191E-2,5.1876582E-2,6.177986E-2,2.6633479E-2,-2.2096274E-2,-7.6224595E-2,-1.4679725E-2,1.4631244E-2,-1.09344274E-1,-6.678112E-2,-8.612628E-2,-1.2806472E-1],"split_indices":[0,0,3,4,1,4,5,4,1,1,4,5,1,1,4,0,0,0,0,4,5,5,5,0,0,0,1,1,0,3,5,0,0,0,0,0,0,0,0,0,0,0,0,0,0,0,0],"split_type":[1,1,1,1,1,1,1,1,1,1,1,1,1,1,1,0,0,0,0,1,1,1,1,0,0,0,1,1,0,1,1,0,0,0,0,0,0,0,0,0,0,0,0,0,0,0,0],"sum_hessian":[1.1113853E3,5.6291565E2,5.484696E2,9.5100746E1,4.678149E2,1.3693517E2,4.1153442E2,4.176993E1,5.3330814E1,1.00580376E2,3.6723453E2,5.0558945E1,8.637622E1,5.3014534E1,3.585199E2,2.1191208E1,2.0578726E1,2.8395315E1,2.49355E1,4.04648E1,6.0115574E1,1.12817406E2,2.5441713E2,3.1620415E1,1.8938528E1,2.1910576E1,6.4465645E1,3.2460865E1,2.0553669E1,2.2374901E2,1.3477089E2,2.296311E1,1.7501692E1,4.200271E1,1.8112864E1,5.0621067E1,6.219634E1,1.4169205E2,1.1272509E2,2.1277813E1,4.318783E1,1.6159788E1,1.6301079E1,4.11419E1,1.826071E2,6.8669075E1,6.610182E1],"tree_param":{"num_deleted":"0","num_feature":"8","num_nodes":"47","size_leaf_vector":"1"}},{"base_weights":[1.2589366E-2,5.396486E-1,-5.3458565E-1,6.404842E-1,4.0584058E-1,-3.7314543E-1,-6.649639E-1,6.8393695E-1,4.0107197E-1,6.4946467E-1,3.2335922E-1,6.0717564E-2,-5.147144E-1,-3.4692845E-1,-7.2846186E-1,1.10613406E-1,6.4573103E-1,3.1829555E-2,7.682037E-2,7.593383E-1,5.5384558E-2,4.6688205E-1,9.186229E-2,4.3013107E-2,-7.2534454E-1,-8.926492E-2,7.3580514E-3,-1.3801669E-1,-6.941209E-1,9.6761376E-2,6.662777E-2,1.0156258E-1,7.908446E-2,6.879402E-2,4.0581044E-2,-1.1244624E-2,5.8040682E-2,-4.7872435E-2,-1.1893514E-1,-7.657191E-2,-1.1240349E-1],"categories":[0,1,3,4,7,13,0,1,3,4,5,7,8,9,11,12,13,14,1,2,3,1,3,4,0,1,3,4,5,6,7,8,9,10,11,12,13,14,0,1,2,3,5,6,0,1,2,3,4,5,6,7,9,10,11,12,13,14,15,0,1,3,4,5,6,7,8,9,10,11,12,13,14,15,0,1,2,3,4,5,7,8,9,10,11,12,13,14,0,1,5,1,2,3,4,5,6,7,13,0,1,6,0,1,2,3,4,5,6,7,8,9,10,11,12,13,0,1,2,3,4,5,7,8,9,11,12,13,14,15,0,1,2,3,4,5,6,7,8,9,0,1,2,5,6,0,1,2,3,4,5,1,3,4,5,2],"categories_nodes":[0,1,2,4,5,6,7,8,9,10,12,13,14,16,19,21,22,24,28],"categories_segments":[0,6,18,21,24,38,44,59,74,88,91,99,102,116,130,140,145,151,155],"categories_sizes":[6,12,3,3,14,6,15,15,14,3,8,3,14,14,10,5,6,4,1],"default_left":[1,1,1,0,1,1,1,1,1,1,1,0,1,1,1,0,1,0,0,1,0,1,1,0,1,0,0,0,1,0,0,0,0,0,0,0,0,0,0,0,0],"id":14,"left_children":[1,3,5,7,9,11,13,15,17,19,21,-1,23,25,27,-1,29,-1,-1,31,-1,33,35,-1,37,-1,-1,-1,39,-1,-1,-1,-1,-1,-1,-1,-1,-1,-1,-1,-1],"loss_changes":[3.0484375E2,7.1301575E0,1.078772E1,3.0430832E0,4.568283E0,2.9079144E1,5.6499634E0,2.0247803E0,1.4767056E0,1.0308895E0,5.787876E0,0E0,3.702912E1,7.8701453E0,3.0216904E0,0E0,3.0350647E0,0E0,0E0,2.8118134E-2,0E0,1.368021E0,4.919672E0,0E0,1.3770744E1,0E0,0E0,0E0,2.7495346E0,0E0,0E0,0E0,0E0,0E0,0E0,0E0,0E0,0E0,0E0,0E0,0E0],"parents":[2147483647,0,0,1,1,2,2,3,3,4,4,5,5,6,6,7,7,8,8,9,9,10,10,12,12,13,13,14,14,16,16,19,19,21,21,22,22,24,24,28,28],"right_children":[2,4,6,8,10,12,14,16,18,20,22,-1,24,26,28,-1,30,-1,-1,32,-1,34,36,-1,38,-1,-1,-1,40,-1,-1,-1,-1,-1,-1,-1,-1,-1,-1,-1,-1],"split_conditions":[1E-45,1E-45,1E-45,1E0,1E-45,1E-45,1E-45,1E-45,1E-45,1E-45,1E-45,6.0717564E-2,1E-45,1E-45,1E-45,1.10613406E-1,1E-45,3.1829555E-2,7.682037E-2,1E-45,5.5384558E-2,1E-45,1E-45,4.3013107E-2,1E-45,-8.926492E-2,7.3580514E-3,-1.3801669E-1,1E-45,9.6761376E-2,6.662777E-2,1.0156258E-1,7.908446E-2,6.879402E-2,4.0581044E-2,-1.1244624E-2,5.8040682E-2,-4.7872435E-2,-1.1893514E-1,-7.657191E-2,-1.1240349E-1],"split_indices":[0,0,5,6,5,1,4,1,0,1,4,0,0,1,1,0,0,0,0,0,0,4,1,0,4,0,0,0,5,0,0,0,0,0,0,0,0,0,0,0,0],"split_type":[1,1,1,0,1,1,1,1,1,1,1,0,1,1,1,0,1,0,0,1,0,1,1,0,1,0,0,0,1,0,0,0,0,0,0,0,0,0,0,0,0],"sum_hessian":[1.0560321E3,5.379101E2,5.1812195E2,3.0564658E2,2.3226353E2,2.3236674E2,2.8575522E2,2.5789053E2,4.7756035E1,5.7859646E1,1.7440388E2,3.207896E1,2.0028778E2,4.8108566E1,2.3764665E2,3.430634E1,2.2358418E2,3.1035782E1,1.6720253E1,3.560653E1,2.2253115E1,1.07333115E2,6.707077E1,3.8880177E1,1.6140761E2,2.4228931E1,2.3879635E1,1.6745098E1,2.2090155E2,8.031376E1,1.4327043E2,1.7341959E1,1.826457E1,5.8231457E1,4.9101658E1,4.574683E1,2.1323936E1,7.260502E1,8.880259E1,1.7989563E2,4.1005928E1],"tree_param":{"num_deleted":"0","num_feature":"8","num_nodes":"41","size_leaf_vector":"1"}},{"base_weights":[-1.5285122E-2,4.8420656E-1,-5.2949333E-1,5.8605975E-1,3.513234E-1,-2.2969748E-1,-6.358415E-1,6.2967384E-1,3.4991926E-1,4.5413157E-1,1.8815263E-1,4.0123355E-2,-5.5730057E-1,-2.6179856E-1,-7.1543354E-1,1.06159925E-1,5.903943E-1,2.7099682E-2,5.566936E-2,6.170135E-1,3.8262364E-1,7.906455E-2,5.280718E-2,-6.633839E-1,-1.8664315E-2,-1.0378104E-1,-4.3307927E-2,-6.39271E-1,-9.076266E-1,9.158558E-2,5.956676E-2,9.2960544E-2,4.7097128E-2,5.5444103E-2,2.2715617E-2,3.3752304E-2,-4.404562E-2,-5.5043336E-2,-9.5725775E-2,1.996424E-2,-2.6429577E-2,-6.856619E-2,-1.1950259E-1,-6.698169E-2,-1.1956194E-1],"categories":[0,1,3,4,7,13,0,1,3,4,5,7,8,9,11,12,13,14,1,2,4,5,6,7,9,0,1,5,0,1,2,3,4,6,0,1,2,3,5,6,0,1,2,3,4,5,6,7,9,10,11,12,13,14,15,0,1,2,3,0,1,2,3,4,5,6,7,8,9,10,11,13,14,15,0,1,2,3,4,5,0,0,1,2,3,4,5,6,4,7,9,0,1,2,3,4,5,7,8,9,11,12,13,14,15,0,1,2,3,5,6,0,1,2,3,4,5,0,1,2,3,4,5,7,8,9,10,11,12,13,14,15,10,0,6,5,0,1,2,3,4,5,6,7,8,9,10],"categories_nodes":[0,1,2,4,5,6,7,8,9,10,12,13,14,16,19,20,21,23,26,27,28],"categories_segments":[0,6,18,25,28,34,40,55,59,74,80,81,88,91,105,111,117,132,133,135,136],"categories_sizes":[6,12,7,3,6,6,15,4,15,6,1,7,3,14,6,6,15,1,2,1,11],"default_left":[1,1,1,0,1,1,1,1,1,1,1,0,1,1,1,0,1,0,0,1,1,1,0,1,0,0,1,1,1,0,0,0,0,0,0,0,0,0,0,0,0,0,0,0,0],"id":15,"left_children":[1,3,5,7,9,11,13,15,17,19,21,-1,23,25,27,-1,29,-1,-1,31,33,35,-1,37,-1,-1,39,41,43,-1,-1,-1,-1,-1,-1,-1,-1,-1,-1,-1,-1,-1,-1,-1,-1],"loss_changes":[2.5809326E2,6.79216E0,1.5709854E1,2.8496857E0,3.686449E0,2.4170242E1,1.0774475E1,2.1418228E0,5.9298086E-1,1.4628887E0,2.3590233E0,0E0,3.471899E0,8.50111E0,4.105835E0,0E0,3.2437363E0,0E0,0E0,1.2743492E0,1.4118338E0,5.544078E0,0E0,1.592783E0,0E0,0E0,1.7963402E0,5.02623E0,2.2733307E0,0E0,0E0,0E0,0E0,0E0,0E0,0E0,0E0,0E0,0E0,0E0,0E0,0E0,0E0,0E0,0E0],"parents":[2147483647,0,0,1,1,2,2,3,3,4,4,5,5,6,6,7,7,8,8,9,9,10,10,12,12,13,13,14,14,16,16,19,19,20,20,21,21,23,23,26,26,27,27,28,28],"right_children":[2,4,6,8,10,12,14,16,18,20,22,-1,24,26,28,-1,30,-1,-1,32,34,36,-1,38,-1,-1,40,42,44,-1,-1,-1,-1,-1,-1,-1,-1,-1,-1,-1,-1,-1,-1,-1,-1],"split_conditions":[1E-45,1E-45,1E-45,1E0,1E-45,1E-45,1E-45,1E-45,1E-45,1E-45,1E-45,4.0123355E-2,1E-45,1E-45,1E-45,1.06159925E-1,1E-45,2.7099682E-2,5.566936E-2,1E-45,1E-45,1E-45,5.280718E-2,1E-45,-1.8664315E-2,-1.0378104E-1,1E-45,1E-45,1E-45,9.158558E-2,5.956676E-2,9.2960544E-2,4.7097128E-2,5.5444103E-2,2.2715617E-2,3.3752304E-2,-4.404562E-2,-5.5043336E-2,-9.5725775E-2,1.996424E-2,-2.6429577E-2,-6.856619E-2,-1.1950259E-1,-6.698169E-2,-1.1956194E-1],"split_indices":[0,0,3,6,4,4,4,1,4,0,1,0,4,1,3,0,0,0,0,4,1,1,0,3,0,0,1,4,1,0,0,0,0,0,0,0,0,0,0,0,0,0,0,0,0],"split_type":[1,1,1,0,1,1,1,1,1,1,1,0,1,1,1,0,1,0,0,1,1,1,0,1,0,0,1,1,1,0,0,0,0,0,0,0,0,0,0,0,0,0,0,0,0],"sum_hessian":[1.00386115E3,5.092291E2,4.9463208E2,2.8728513E2,2.2194395E2,1.2994379E2,3.6468826E2,2.4177623E2,4.5508907E1,1.355928E2,8.6351166E1,4.7771957E1,8.217184E1,6.437254E1,3.0031573E2,3.100775E1,2.1076848E2,2.238362E1,2.3125286E1,4.0179726E1,9.541307E1,6.066263E1,2.5688534E1,6.4752266E1,1.7419573E1,1.6756914E1,4.7615627E1,2.1665646E2,8.365927E1,7.394112E1,1.3682736E2,2.3006346E1,1.717338E1,6.740065E1,2.8012423E1,4.1891014E1,1.8771614E1,2.6285643E1,3.846662E1,2.1785975E1,2.5829655E1,1.8244313E2,3.4213326E1,1.7332813E1,6.6326454E1],"tree_param":{"num_deleted":"0","num_feature":"8","num_nodes":"45","size_leaf_vector":"1"}},{"base_weights":[-3.1195704E-3,4.324337E-1,-4.5034602E-1,5.482153E-1,2.8048062E-1,-2.874259E-1,-5.8431226E-1,7.268027E-1,4.7774383E-1,3.4394708E-1,-1.08572E-2,6.729067E-2,-4.3688095E-1,-1.19384564E-1,-5.2212554E-1,5.361936E-1,8.70907E-1,8.1277114E-1,3.6709756E-1,4.1866043E-1,1.1567958E-1,4.2021044E-2,-6.4366657E-1,-1.7788129E-1,-5.955265E-1,8.953347E-2,3.6497433E-2,1.200056E-1,8.605383E-2,1.1066033E-1,7.6865554E-2,5.1541157E-2,2.8629605E-2,7.7568546E-2,4.606688E-2,-2.459716E-2,7.770405E-2,-3.6478885E-2,-1.1248997E-1,-7.572477E-2,2.9245492E-2,-4.035006E-2,-7.8902155E-2],"categories":[0,1,3,4,7,8,11,13,14,0,1,3,4,5,7,8,9,11,12,13,14,1,2,3,0,1,2,3,4,5,7,8,9,11,12,13,14,15,3,0,1,3,4,5,6,7,8,9,10,11,12,13,14,0,1,2,3,4,5,6,7,8,9,10,11,12,1,2,3,5,6,0,1,2,3,4,5,6,7,9,10,11,12,13,14,0,1,1,2,3,4,5,6,7,8,9,10,11,12,13,14,0,1,2,3,5,6,1,2,3,4,5,6,0,1,2,3,4,5,7,8,9,10,11,12,13,14,15,0,1,2,3,4,5,6,7,9,10,11,12,13,14,15,2,4,1,2,3,4,0,1,2,3,4,5,7,8,1,3,4,5,0,1,2,0,1,2,3,4,5,6],"categories_nodes":[0,1,2,3,4,5,6,7,8,9,12,14,15,16,17,18,19,20,22,23,24],"categories_segments":[0,9,21,24,38,39,53,66,71,85,87,101,107,113,128,143,145,149,157,161,164],"categories_sizes":[9,12,3,14,1,14,13,5,14,2,14,6,6,15,15,2,4,8,4,3,7],"default_left":[1,1,1,1,1,1,1,1,1,1,0,0,1,0,1,1,1,1,1,1,1,0,1,1,1,0,0,0,0,0,0,0,0,0,0,0,0,0,0,0,0,0,0],"id":16,"left_children":[1,3,5,7,9,11,13,15,17,19,-1,-1,21,-1,23,25,27,29,31,33,35,-1,37,39,41,-1,-1,-1,-1,-1,-1,-1,-1,-1,-1,-1,-1,-1,-1,-1,-1,-1,-1],"loss_changes":[1.8795543E2,8.519981E0,1.030323E1,3.3058624E0,5.0155125E0,2.744495E1,6.358017E0,1.8851242E0,7.2608376E0,3.0692883E0,0E0,0E0,2.9991531E1,0E0,5.6893387E0,1.5617466E0,4.8762512E-1,6.1699295E-1,1.1473503E0,9.71344E-1,7.7922063E0,0E0,1.43186035E1,7.8203573E0,2.8367767E0,0E0,0E0,0E0,0E0,0E0,0E0,0E0,0E0,0E0,0E0,0E0,0E0,0E0,0E0,0E0,0E0,0E0,0E0],"parents":[2147483647,0,0,1,1,2,2,3,3,4,4,5,5,6,6,7,7,8,8,9,9,12,12,14,14,15,15,16,16,17,17,18,18,19,19,20,20,22,22,23,23,24,24],"right_children":[2,4,6,8,10,12,14,16,18,20,-1,-1,22,-1,24,26,28,30,32,34,36,-1,38,40,42,-1,-1,-1,-1,-1,-1,-1,-1,-1,-1,-1,-1,-1,-1,-1,-1,-1,-1],"split_conditions":[1E-45,1E-45,1E-45,1E-45,1E-45,1E-45,1E-45,1E-45,1E-45,1E-45,-1.08572E-2,6.729067E-2,1E-45,-1.19384564E-1,1E-45,1E-45,1E-45,1E-45,1E-45,1E-45,1E-45,4.2021044E-2,1E-45,1E-45,1E-45,8.953347E-2,3.6497433E-2,1.200056E-1,8.605383E-2,1.1066033E-1,7.6865554E-2,5.1541157E-2,2.8629605E-2,7.7568546E-2,4.606688E-2,-2.459716E-2,7.770405E-2,-3.6478885E-2,-1.1248997E-1,-7.572477E-2,2.9245492E-2,-4.035006E-2,-7.8902155E-2],"split_indices":[0,0,5,0,5,1,1,4,1,4,0,0,0,0,4,4,1,1,5,5,1,0,4,3,1,0,0,0,0,0,0,0,0,0,0,0,0,0,0,0,0,0,0],"split_type":[1,1,1,1,1,1,1,1,1,1,0,0,1,0,1,1,1,1,1,1,1,0,1,1,1,0,0,0,0,0,0,0,0,0,0,0,0,0,0,0,0,0,0],"sum_hessian":[9.639002E2,4.8832776E2,4.7557245E2,2.7639255E2,2.1193518E2,2.153226E2,2.6024985E2,7.686418E1,1.9952838E2,1.809983E2,3.0936878E1,3.2083794E1,1.832388E2,3.3379253E1,2.268706E2,3.412662E1,4.273756E1,4.8734978E1,1.507934E2,1.3603758E2,4.496073E1,3.8077812E1,1.45161E2,4.018354E1,1.8668706E2,1.7410408E1,1.6716213E1,2.1985266E1,2.0752295E1,2.8742E1,1.9992975E1,1.0128785E2,4.950555E1,1.7279163E1,1.18758415E2,2.822629E1,1.6734442E1,6.749444E1,7.766656E1,1.9266876E1,2.0916664E1,3.5944164E1,1.5074289E2],"tree_param":{"num_deleted":"0","num_feature":"8","num_nodes":"43","size_leaf_vector":"1"}},{"base_weights":[-1.4266758E-2,4.029934E-1,-4.5562625E-1,5.0516593E-1,2.7813956E-1,-4.2301485E-1,-1.4320283E-1,7.139158E-1,4.5827657E-1,4.9494338E-1,2.0981629E-1,-1.7920111E-1,-5.098442E-1,5.3354174E-2,1.24846704E-1,5.482248E-1,2.8803557E-1,7.146211E-2,3.9232597E-2,3.867673E-1,9.9649094E-2,1.9733545E-1,-6.0407895E-1,-2.4983245E-3,-5.957054E-1,5.5224635E-2,8.317518E-2,6.4236134E-2,1.1580806E-3,2.9989613E-2,6.569552E-2,3.612767E-2,-2.96099E-3,8.44777E-2,-3.145537E-2,-1.0962367E-1,-5.1080406E-2,3.2212798E-2,-2.9622633E-2,-5.9754137E-2,-1.0609922E-1],"categories":[0,1,3,4,7,13,0,1,3,4,5,7,8,9,11,12,13,14,0,1,2,3,4,5,7,8,9,10,11,12,13,14,15,1,3,4,1,2,4,5,6,7,9,0,1,2,3,4,5,7,8,9,10,11,12,13,0,1,2,3,4,5,7,9,10,11,12,13,0,1,2,3,4,5,7,8,9,10,11,12,13,14,0,1,2,3,5,0,1,3,1,2,3,4,0,0,1,2,3,4,5,6,7,8,9,10,11,12,13,14,0,1,2,3,4,5,7,8,9,10,11,12,13,0,1,2,3,0,1,2,3,4,6,0,1,2,3,4,6,0,1,2,3,2,5],"categories_nodes":[0,1,3,4,5,7,8,9,10,11,12,15,16,19,20,21,22,23,24],"categories_segments":[0,6,18,33,36,43,56,68,82,87,90,94,95,110,123,127,133,139,143],"categories_sizes":[6,12,15,3,7,13,12,14,5,3,4,1,15,13,4,6,6,4,2],"default_left":[1,1,0,1,1,1,0,1,1,1,1,1,1,0,0,1,1,0,0,1,1,1,1,1,1,0,0,0,0,0,0,0,0,0,0,0,0,0,0,0,0],"id":17,"left_children":[1,3,5,7,9,11,-1,13,15,17,19,21,23,-1,-1,25,27,-1,-1,29,31,33,35,37,39,-1,-1,-1,-1,-1,-1,-1,-1,-1,-1,-1,-1,-1,-1,-1,-1],"loss_changes":[1.7013945E2,5.984726E0,1.0506187E1,2.3814545E0,3.1280537E0,9.069244E0,0E0,3.8707638E0,3.1972542E0,7.556572E-1,3.1811566E0,1.828125E1,1.3819138E1,0E0,0E0,1.6175346E0,5.143528E0,0E0,0E0,1.30618E0,2.548062E0,1.4179844E1,2.7581081E0,3.0949945E0,7.457634E0,0E0,0E0,0E0,0E0,0E0,0E0,0E0,0E0,0E0,0E0,0E0,0E0,0E0,0E0,0E0,0E0],"parents":[2147483647,0,0,1,1,2,2,3,3,4,4,5,5,7,7,8,8,9,9,10,10,11,11,12,12,15,15,16,16,19,19,20,20,21,21,22,22,23,23,24,24],"right_children":[2,4,6,8,10,12,-1,14,16,18,20,22,24,-1,-1,26,28,-1,-1,30,32,34,36,38,40,-1,-1,-1,-1,-1,-1,-1,-1,-1,-1,-1,-1,-1,-1,-1,-1],"split_conditions":[1E-45,1E-45,1E0,1E-45,1E-45,1E-45,-1.4320283E-1,1E-45,1E-45,1E-45,1E-45,1E-45,1E-45,5.3354174E-2,1.24846704E-1,1E-45,1E-45,7.146211E-2,3.9232597E-2,1E-45,1E-45,1E-45,1E-45,1E-45,1E-45,5.5224635E-2,8.317518E-2,6.4236134E-2,1.1580806E-3,2.9989613E-2,6.569552E-2,3.612767E-2,-2.96099E-3,8.44777E-2,-3.145537E-2,-1.0962367E-1,-5.1080406E-2,3.2212798E-2,-2.9622633E-2,-5.9754137E-2,-1.0609922E-1],"split_indices":[0,0,6,0,5,3,0,1,1,1,4,5,5,0,0,2,0,0,0,1,5,4,1,4,4,0,0,0,0,0,0,0,0,0,0,0,0,0,0,0,0],"split_type":[1,1,0,1,1,1,0,1,1,1,1,1,1,0,0,1,1,0,0,1,1,1,1,1,1,0,0,0,0,0,0,0,0,0,0,0,0,0,0,0,0],"sum_hessian":[9.228514E2,4.7439548E2,4.484559E2,2.6003635E2,2.1435912E2,4.3017514E2,1.8280787E1,4.6367905E1,2.1366846E2,5.059988E1,1.6375923E2,1.1338269E2,3.1679245E2,2.5951235E1,2.0416672E1,1.3905777E2,7.4610695E1,3.1031054E1,1.9568827E1,6.233737E1,1.0142186E2,6.024997E1,5.3132717E1,4.5933372E1,2.7085907E2,8.7156494E1,5.1901264E1,3.9345943E1,3.526475E1,3.4204693E1,2.813268E1,3.8510227E1,6.2911633E1,2.8555141E1,3.169483E1,1.8800835E1,3.4331882E1,2.1751549E1,2.4181826E1,2.0247508E2,6.838399E1],"tree_param":{"num_deleted":"0","num_feature":"8","num_nodes":"41","size_leaf_vector":"1"}},{"base_weights":[-2.1007177E-3,3.573809E-1,-3.834533E-1,5.2726704E-1,2.7819955E-1,-1.8362518E-1,-4.558202E-1,6.358217E-1,4.3092605E-1,3.8492155E-1,1.0492503E-1,2.9248068E-2,-4.3361893E-1,-2.5622845E-1,-5.6775767E-1,6.1975334E-2,8.7477E-2,1.858535E-2,5.8769214E-1,4.9686658E-1,2.1480858E-1,2.2906302E-1,-1.9251193E-1,-1.0180751E-1,-3.0251557E-1,-4.4313517E-1,-7.876863E-2,-7.737456E-1,-5.104668E-1,9.393988E-2,4.4736587E-2,7.773585E-2,1.632683E-2,4.1474182E-2,-2.8402165E-2,4.343303E-2,1.6043805E-2,-5.9780767E-3,-3.73619E-2,-1.2748684E-2,-7.300647E-2,-1.3396587E-2,-8.184164E-2,-6.526317E-2,1.23021295E-2,-6.6741854E-2,-1.3165423E-1,-3.9239828E-2,-7.935358E-2],"categories":[0,1,3,4,7,13,0,1,2,3,4,5,7,8,9,11,12,13,14,1,2,4,5,6,7,9,0,1,2,3,4,5,7,8,9,11,12,13,14,15,0,1,2,3,4,5,7,9,10,11,12,13,14,0,1,2,3,4,6,0,1,2,3,5,0,1,2,3,0,1,2,3,4,5,7,8,9,10,11,12,13,14,15,0,1,3,4,5,6,7,8,9,10,11,13,14,15,0,1,2,3,4,6,7,8,9,0,1,2,3,4,5,6,0,1,2,6,1,2,4,5,0,1,2,3,4,5,0,1,0,1,2,3,4,6,7,8,9,10,11,12,0,1,2,3,4,5,6,7,0,0,1,2,0,1,2,3,4,0,1,0,1,5,6],"categories_nodes":[0,1,2,3,4,5,6,7,8,9,10,12,13,14,18,20,21,22,24,25,26,27,28],"categories_segments":[0,6,19,26,40,53,59,64,68,83,97,106,113,117,121,127,129,141,149,150,153,158,160],"categories_sizes":[6,13,7,14,13,6,5,4,15,14,9,7,4,4,6,2,12,8,1,3,5,2,4],"default_left":[1,1,1,1,1,1,1,1,1,1,1,0,1,1,1,0,0,0,1,0,1,1,1,0,1,1,1,1,1,0,0,0,0,0,0,0,0,0,0,0,0,0,0,0,0,0,0,0,0],"id":18,"left_children":[1,3,5,7,9,11,13,15,17,19,21,-1,23,25,27,-1,-1,-1,29,31,33,35,37,-1,39,41,43,45,47,-1,-1,-1,-1,-1,-1,-1,-1,-1,-1,-1,-1,-1,-1,-1,-1,-1,-1,-1,-1],"loss_changes":[1.2213836E2,6.0926666E0,6.207485E0,1.3771858E0,5.782713E0,1.2410501E1,7.007004E0,5.487213E-1,3.3536568E0,3.6392956E0,4.4660044E0,0E0,3.8316011E0,3.7898693E0,2.188713E0,0E0,0E0,0E0,1.9328995E0,6.2541065E0,4.613282E0,1.0501347E0,5.936568E-1,0E0,3.338921E0,4.3561573E0,5.0310364E0,2.7164211E0,4.293682E0,0E0,0E0,0E0,0E0,0E0,0E0,0E0,0E0,0E0,0E0,0E0,0E0,0E0,0E0,0E0,0E0,0E0,0E0,0E0,0E0],"parents":[2147483647,0,0,1,1,2,2,3,3,4,4,5,5,6,6,7,7,8,8,9,9,10,10,12,12,13,13,14,14,18,18,19,19,20,20,21,21,22,22,24,24,25,25,26,26,27,27,28,28],"right_children":[2,4,6,8,10,12,14,16,18,20,22,-1,24,26,28,-1,-1,-1,30,32,34,36,38,-1,40,42,44,46,48,-1,-1,-1,-1,-1,-1,-1,-1,-1,-1,-1,-1,-1,-1,-1,-1,-1,-1,-1,-1],"split_conditions":[1E-45,1E-45,1E-45,1E-45,1E-45,1E-45,1E-45,1E-45,1E-45,1E-45,1E-45,2.9248068E-2,1E-45,1E-45,1E-45,6.1975334E-2,8.7477E-2,1.858535E-2,1E-45,1E0,1E-45,1E-45,1E-45,-1.0180751E-1,1E-45,1E-45,1E-45,1E-45,1E-45,9.393988E-2,4.4736587E-2,7.773585E-2,1.632683E-2,4.1474182E-2,-2.8402165E-2,4.343303E-2,1.6043805E-2,-5.9780767E-3,-3.73619E-2,-1.2748684E-2,-7.300647E-2,-1.3396587E-2,-8.184164E-2,-6.526317E-2,1.23021295E-2,-6.6741854E-2,-1.3165423E-1,-3.9239828E-2,-7.935358E-2],"split_indices":[0,0,3,0,1,4,4,4,1,0,0,0,1,1,3,0,0,0,1,6,4,1,1,0,0,3,3,4,1,0,0,0,0,0,0,0,0,0,0,0,0,0,0,0,0,0,0,0,0],"split_type":[1,1,1,1,1,1,1,1,1,1,1,0,1,1,1,0,0,0,1,0,1,1,1,0,1,1,1,1,1,0,0,0,0,0,0,0,0,0,0,0,0,0,0,0,0,0,0,0,0],"sum_hessian":[8.89932E2,4.581142E2,4.3181778E2,1.4471965E2,3.1339456E2,1.1529094E2,3.1652686E2,6.6703384E1,7.801627E1,1.9355E2,1.1984455E2,4.2582596E1,7.2708336E1,1.1433943E2,2.0218742E2,3.0286446E1,3.641694E1,2.8606768E1,4.9409508E1,1.1613705E2,7.741296E1,8.464438E1,3.5200176E1,1.684931E1,5.5859028E1,5.5310947E1,5.9028484E1,4.261298E1,1.5957443E2,2.5335533E1,2.4073975E1,8.182769E1,3.4309357E1,6.0179195E1,1.7233759E1,3.493877E1,4.9705605E1,1.6278141E1,1.8922037E1,3.437557E1,2.1483461E1,2.339105E1,3.1919897E1,1.6292725E1,4.273576E1,2.6172894E1,1.6440084E1,7.222041E1,8.735403E1],"tree_param":{"num_deleted":"0","num_feature":"8","num_nodes":"49","size_leaf_vector":"1"}},{"base_weights":[-1.2373874E-2,2.6655108E-1,-4.4012478E-1,7.442617E-2,2.486956E-1,1.731101E-2,-4.938751E-1,2.6345906E-1,-1.8733337E-3,-1.3299567E-1,-4.431205E-1,3.180259E-1,1.948624E-1,-3.028082E-1,-6.315208E-1,4.9305107E-2,-2.2179713E-2,4.6076987E-2,5.3664944E-3,4.7491803E-3,-5.4175463E-2,1.540287E-2,-9.723306E-2],"categories":[0,1,2,3,4,5,6,7,8,9,0,1,2,3,4,5,6,7,9,10,11,12,13,14,15,0,1,3,4,5,6,7,8,9,10,11,12,13,14,15,1,0,1,2,3,4,5,6,9,1,3,2,4,5,4,0,1,2,5,0,1,3,4,5,0,1,2,3,5,6],"categories_nodes":[0,1,2,4,6,7,10,11,12,13,14],"categories_segments":[0,10,25,40,41,49,51,54,55,59,64],"categories_sizes":[10,15,15,1,8,2,3,1,4,5,6],"default_left":[1,1,1,0,1,0,1,1,0,0,1,1,1,1,1,0,0,0,0,0,0,0,0],"id":19,"left_children":[1,3,5,-1,7,-1,9,11,-1,-1,13,15,17,19,21,-1,-1,-1,-1,-1,-1,-1,-1],"loss_changes":[1.01990295E2,3.1753502E0,1.0629585E1,0E0,1.9276791E0,0E0,9.350937E0,1.7161217E0,0E0,0E0,7.467972E0,1.2032433E1,5.8847437E0,8.356533E0,1.6428322E1,0E0,0E0,0E0,0E0,0E0,0E0,0E0,0E0],"parents":[2147483647,0,0,1,1,2,2,4,4,6,6,7,7,10,10,11,11,12,12,13,13,14,14],"right_children":[2,4,6,-1,8,-1,10,12,-1,-1,14,16,18,20,22,-1,-1,-1,-1,-1,-1,-1,-1],"split_conditions":[1E-45,1E-45,1E-45,7.442617E-2,1E-45,1.731101E-2,1E-45,1E-45,-1.8733337E-3,-1.3299567E-1,1E-45,1E-45,1E-45,1E-45,1E-45,4.9305107E-2,-2.2179713E-2,4.6076987E-2,5.3664944E-3,4.7491803E-3,-5.4175463E-2,1.540287E-2,-9.723306E-2],"split_indices":[3,1,1,0,1,0,3,5,0,0,3,4,4,4,4,0,0,0,0,0,0,0,0],"split_type":[1,1,1,0,1,0,1,1,0,0,1,1,1,1,1,0,0,0,0,0,0,0,0],"sum_hessian":[8.538271E2,5.169319E2,3.368952E2,2.410216E1,4.9282974E2,2.8313578E1,3.0858163E2,4.6676816E2,2.6061579E1,2.281901E1,2.8576263E2,2.5892197E2,2.0784619E2,1.6454689E2,1.2121574E2,2.189333E2,3.998867E1,9.187429E1,1.159719E2,4.9709774E1,1.1483711E2,2.2939594E1,9.827614E1],"tree_param":{"num_deleted":"0","num_feature":"8","num_nodes":"23","size_leaf_vector":"1"}},{"base_weights":[-9.260602E-3,3.1654593E-1,-3.6319205E-1,4.2757815E-1,1.855806E-1,-2.2284314E-1,-4.8639098E-1,4.7795987E-1,1.709338E-1,4.0713453E-1,1.2180284E-1,6.6829644E-2,-3.778912E-1,-6.886174E-1,-3.30522E-1,8.9998655E-2,4.4107544E-1,1.1664658E-2,2.8761528E-2,1.2330188E-2,9.31717E-2,2.8632957E-1,-6.41722E-2,-1.19412184E-1,-8.741597E-1,-1.3805586E-1,-5.744722E-1,2.9238202E-2,-4.777573E-1,7.3118396E-2,4.3223307E-2,4.8350636E-2,6.017846E-3,1.605856E-2,-3.2324996E-2,4.8432756E-2,-3.890723E-2,-6.960881E-2,-1.2024043E-1,-9.6957214E-2,-4.4884108E-2,-3.6294058E-2,-6.268045E-2],"categories":[0,1,3,4,7,13,0,1,3,4,5,7,8,9,11,12,13,14,1,2,3,0,1,2,3,5,6,0,1,3,4,5,6,7,8,9,10,11,12,13,14,1,5,6,0,1,2,3,4,5,6,7,9,10,11,12,13,14,15,0,1,2,3,0,1,1,3,1,3,4,0,1,2,3,4,5,6,7,8,0,1,2,3,5,6,0,1,2,3,4,5,7,8,9,11,12,13,14,15,0,1,2,3,4,6,7,8,9,10,11,12,13,14,15,0,1,2,3,4,5,7,8,9,10,11,12,13,14,15,1,2,3,4,5,6,7,13,1,4,0,1,2,3,0,1,2,3,4,5,6,7,8],"categories_nodes":[0,1,2,4,5,6,7,8,9,10,12,13,14,16,21,22,23,24,26,28],"categories_segments":[0,6,18,21,27,41,44,59,63,65,67,70,79,85,99,114,129,137,139,143],"categories_sizes":[6,12,3,6,14,3,15,4,2,2,3,9,6,14,15,15,8,2,4,9],"default_left":[1,1,1,0,1,1,1,1,1,1,1,0,1,1,1,0,1,0,0,0,0,1,1,1,1,0,1,0,1,0,0,0,0,0,0,0,0,0,0,0,0,0,0],"id":20,"left_children":[1,3,5,7,9,11,13,15,17,19,21,-1,23,25,27,-1,29,-1,-1,-1,-1,31,33,35,37,-1,39,-1,41,-1,-1,-1,-1,-1,-1,-1,-1,-1,-1,-1,-1,-1,-1],"loss_changes":[9.665596E1,6.304497E0,6.889786E0,3.0055885E0,2.815586E0,2.2891685E1,6.612034E0,1.7932663E0,1.8645406E-1,4.9673924E0,4.811433E0,0E0,2.0174261E1,4.5113564E0,1.0326475E1,0E0,2.264202E0,0E0,0E0,0E0,0E0,2.2686434E0,3.0152988E0,1.1182846E1,1.7059898E0,0E0,3.3467026E0,0E0,6.5970993E-1,0E0,0E0,0E0,0E0,0E0,0E0,0E0,0E0,0E0,0E0,0E0,0E0,0E0,0E0],"parents":[2147483647,0,0,1,1,2,2,3,3,4,4,5,5,6,6,7,7,8,8,9,9,10,10,12,12,13,13,14,14,16,16,21,21,22,22,23,23,24,24,26,26,28,28],"right_children":[2,4,6,8,10,12,14,16,18,20,22,-1,24,26,28,-1,30,-1,-1,-1,-1,32,34,36,38,-1,40,-1,42,-1,-1,-1,-1,-1,-1,-1,-1,-1,-1,-1,-1,-1,-1],"split_conditions":[1E-45,1E-45,1E-45,1E0,1E-45,1E-45,1E-45,1E-45,1E-45,1E-45,1E-45,6.6829644E-2,1E-45,1E-45,1E-45,8.9998655E-2,1E-45,1.1664658E-2,2.8761528E-2,1.2330188E-2,9.31717E-2,1E-45,1E-45,1E-45,1E-45,-1.3805586E-1,1E-45,2.9238202E-2,1E-45,7.3118396E-2,4.3223307E-2,4.8350636E-2,6.017846E-3,1.605856E-2,-3.2324996E-2,4.8432756E-2,-3.890723E-2,-6.960881E-2,-1.2024043E-1,-9.6957214E-2,-4.4884108E-2,-3.6294058E-2,-6.268045E-2],"split_indices":[0,0,5,6,4,1,1,1,4,5,5,0,4,3,4,0,0,0,0,0,0,0,1,0,4,0,4,0,3,0,0,0,0,0,0,0,0,0,0,0,0,0,0],"split_type":[1,1,1,0,1,1,1,1,1,1,1,0,1,1,1,0,1,0,0,0,0,1,1,1,1,0,1,0,1,0,0,0,0,0,0,0,0,0,0,0,0,0,0],"sum_hessian":[8.3719604E2,4.3594086E2,4.0125516E2,2.3529309E2,2.0064778E2,1.8824629E2,2.1300887E2,1.9630843E2,3.898466E1,4.4231037E1,1.5641675E2,3.1041185E1,1.5720511E2,9.1957794E1,1.2105107E2,2.2379225E1,1.739292E2,1.9323366E1,1.9661295E1,2.4548939E1,1.96821E1,8.2859245E1,7.35575E1,1.03782455E2,5.342265E1,1.7384174E1,7.457362E1,2.4651329E1,9.639974E1,5.6020866E1,1.1790833E2,5.5365696E1,2.7493551E1,3.749318E1,3.606432E1,2.9027348E1,7.475511E1,1.6810572E1,3.661208E1,3.393675E1,4.0636875E1,1.9921381E1,7.647836E1],"tree_param":{"num_deleted":"0","num_feature":"8","num_nodes":"43","size_leaf_vector":"1"}},{"base_weights":[-3.2653906E-3,2.6548013E-1,-3.1010216E-1,5.513581E-1,2.2026324E-1,-2.2538507E-1,-4.7307247E-1,5.175596E-2,9.2323184E-2,7.341439E-2,1.7602311E-1,2.045632E-2,-3.1072006E-1,-3.4594077E-1,-6.977046E-1,2.6910752E-1,5.1771265E-2,2.5641572E-1,-4.275364E-1,-9.886795E-2,-1.93808E-1,-5.4365885E-2,-1.3069974E-1,8.51128E-2,2.6860885E-2,1.3728465E-2,-2.3472555E-2,1.7426105E-2,4.2647254E-2,-1.3173905E-1,-3.7706524E-2,-6.527362E-2,2.3297083E-2],"categories":[0,1,13,0,1,2,3,4,5,7,8,9,11,12,13,14,15,1,2,0,1,2,0,1,3,4,5,6,7,9,10,11,12,13,14,15,1,13,0,6,3,4,0,1,3,4,5,6,7,8,9,10,11,12,13,14,0,1,2,3,4,5,6,7,8,9,10,11,0,1,0,1,2,3,4,5,6,7,8,9,10,11,12,13,14,0,1,3,4,6,7,8,9,10,11,12,13,14,0,1,2,0,1,2,3,4,5,6,0,1,2,3],"categories_nodes":[0,1,2,3,4,5,6,10,12,13,14,15,16,17,18,20],"categories_segments":[0,3,17,19,22,36,38,40,42,56,68,70,85,98,101,108],"categories_sizes":[3,14,2,3,14,2,2,2,14,12,2,15,13,3,7,4],"default_left":[1,1,1,1,1,1,1,0,0,0,1,0,1,1,1,1,1,1,1,0,1,0,0,0,0,0,0,0,0,0,0,0,0],"id":21,"left_children":[1,3,5,7,9,11,13,-1,-1,-1,15,-1,17,19,21,23,25,27,29,-1,31,-1,-1,-1,-1,-1,-1,-1,-1,-1,-1,-1,-1],"loss_changes":[6.6724075E1,5.5121098E0,5.1601105E0,1.3623905E0,6.3883057E0,8.449879E0,3.551752E0,0E0,0E0,0E0,3.878066E0,0E0,1.3667448E1,5.9466686E0,4.146862E0,3.7680187E0,2.238526E0,3.602512E-1,1.2806801E1,0E0,8.676334E0,0E0,0E0,0E0,0E0,0E0,0E0,0E0,0E0,0E0,0E0,0E0,0E0],"parents":[2147483647,0,0,1,1,2,2,3,3,4,4,5,5,6,6,10,10,12,12,13,13,14,14,15,15,16,16,17,17,18,18,20,20],"right_children":[2,4,6,8,10,12,14,-1,-1,-1,16,-1,18,20,22,24,26,28,30,-1,32,-1,-1,-1,-1,-1,-1,-1,-1,-1,-1,-1,-1],"split_conditions":[1E-45,1E-45,1E-45,1E-45,1E-45,1E-45,1E-45,5.175596E-2,9.2323184E-2,7.341439E-2,1E-45,2.045632E-2,1E-45,1E-45,1E-45,1E-45,1E-45,1E-45,1E-45,-9.886795E-2,1E-45,-5.4365885E-2,-1.3069974E-1,8.51128E-2,2.6860885E-2,1.3728465E-2,-2.3472555E-2,1.7426105E-2,4.2647254E-2,-1.3173905E-1,-3.7706524E-2,-6.527362E-2,2.3297083E-2],"split_indices":[0,0,5,5,1,0,1,0,0,0,5,0,1,1,3,1,0,3,3,0,3,0,0,0,0,0,0,0,0,0,0,0,0],"split_type":[1,1,1,1,1,1,1,0,0,0,1,0,1,1,1,1,1,1,1,0,1,0,0,0,0,0,0,0,0,0,0,0,0],"sum_hessian":[8.0815E2,4.3084668E2,3.7730334E2,5.805932E1,3.7278735E2,2.4905695E2,1.282464E2,3.8221504E1,1.9837812E1,3.7291523E1,3.3549582E2,4.410464E1,2.0495232E2,8.272351E1,4.5522896E1,1.9145299E2,1.4404283E2,3.489737E1,1.7005495E2,1.9484283E1,6.3239223E1,2.858487E1,1.6938025E1,1.7375753E1,1.7407724E2,1.152176E2,2.8825235E1,1.6946611E1,1.7950758E1,2.4145258E1,1.4590968E2,3.3171818E1,3.0067406E1],"tree_param":{"num_deleted":"0","num_feature":"8","num_nodes":"33","size_leaf_vector":"1"}},{"base_weights":[6.968987E-3,2.716915E-1,-2.850426E-1,4.5965126E-1,1.8976307E-1,-1.8645191E-1,-4.1711596E-1,6.3061327E-1,3.867047E-1,2.5942442E-1,9.1482714E-2,1.0357812E-1,-3.6496714E-1,1.2282555E-2,-5.2966666E-1,4.6686396E-2,1.0501403E-1,4.5734307E-1,1.9706585E-2,3.7016383E-1,1.5861306E-1,2.8864202E-1,-1.0188122E-1,4.2115954E-1,-2.2968005E-1,-2.8344506E-1,-5.8131105E-1,-1.2691103E-1,-3.688859E-1,6.1841313E-2,4.9362577E-2,5.7507347E-2,2.3705198E-3,-4.9116043E-3,3.643993E-2,6.5821126E-2,-1.9286841E-2,8.7704025E-3,-4.3911215E-2,7.8838944E-2,1.9422924E-2,-5.25358E-2,-9.864321E-3,-1.7974878E-2,-7.368784E-2,-3.975396E-2,-9.8779276E-2,-9.597462E-2,-3.1938035E-2],"categories":[0,1,3,4,7,13,0,1,2,3,4,5,7,8,9,11,12,13,14,2,4,5,6,7,0,1,2,3,4,5,7,8,9,10,11,12,13,14,15,1,3,0,1,2,3,1,2,3,4,0,1,2,0,1,1,3,4,6,0,0,1,2,3,4,3,6,0,1,3,4,6,0,0,1,3,4,6,7,8,9,10,11,12,13,14,0,5,0,1,2,3,4,6,7,8,9,10,11,12,1,2,3,4,5,6,7,8,9,10,11,12,13,14,15,0,1,2,3,10,0,1,2,4,5],"categories_nodes":[0,1,2,3,4,5,6,7,8,9,10,11,12,14,17,19,20,21,22,23,24,25,26,28],"categories_segments":[0,6,19,24,39,41,45,49,52,54,58,59,64,66,71,72,85,86,87,99,114,118,119,121],"categories_sizes":[6,13,5,15,2,4,4,3,2,4,1,5,2,5,1,13,1,1,12,15,4,1,2,3],"default_left":[1,1,1,1,1,1,1,1,1,1,1,1,1,0,1,0,0,1,0,1,1,1,1,1,1,1,1,0,1,0,0,0,0,0,0,0,0,0,0,0,0,0,0,0,0,0,0,0,0],"id":22,"left_children":[1,3,5,7,9,11,13,15,17,19,21,23,25,-1,27,-1,-1,29,-1,31,33,35,37,39,41,43,45,-1,47,-1,-1,-1,-1,-1,-1,-1,-1,-1,-1,-1,-1,-1,-1,-1,-1,-1,-1,-1,-1],"loss_changes":[6.1202705E1,6.348757E0,4.8608246E0,1.4412956E0,1.9728708E0,1.1228159E1,9.408024E0,1.9883938E0,1.3676119E0,1.8605089E0,4.6330233E0,8.819487E0,2.279562E0,0E0,1.0955879E1,0E0,0E0,7.083511E-2,0E0,3.0374308E0,2.5884209E0,7.0296106E0,2.845767E0,2.5382152E0,1.2271476E0,4.293246E0,2.039915E0,0E0,4.4053583E0,0E0,0E0,0E0,0E0,0E0,0E0,0E0,0E0,0E0,0E0,0E0,0E0,0E0,0E0,0E0,0E0,0E0,0E0,0E0,0E0],"parents":[2147483647,0,0,1,1,2,2,3,3,4,4,5,5,6,6,7,7,8,8,9,9,10,10,11,11,12,12,14,14,17,17,19,19,20,20,21,21,22,22,23,23,24,24,25,25,26,26,28,28],"right_children":[2,4,6,8,10,12,14,16,18,20,22,24,26,-1,28,-1,-1,30,-1,32,34,36,38,40,42,44,46,-1,48,-1,-1,-1,-1,-1,-1,-1,-1,-1,-1,-1,-1,-1,-1,-1,-1,-1,-1,-1,-1],"split_conditions":[1E-45,1E-45,1E-45,1E-45,1E-45,1E-45,1E-45,1E-45,1E-45,1E-45,1E-45,1E-45,1E-45,1.2282555E-2,1E-45,4.6686396E-2,1.0501403E-1,1E-45,1.9706585E-2,1E-45,1E-45,1E-45,1E-45,1E-45,1E-45,1E-45,1E-45,-1.2691103E-1,1E-45,6.1841313E-2,4.9362577E-2,5.7507347E-2,2.3705198E-3,-4.9116043E-3,3.643993E-2,6.5821126E-2,-1.9286841E-2,8.7704025E-3,-4.3911215E-2,7.8838944E-2,1.9422924E-2,-5.25358E-2,-9.864321E-3,-1.7974878E-2,-7.368784E-2,-3.975396E-2,-9.8779276E-2,-9.597462E-2,-3.1938035E-2],"split_indices":[0,0,3,0,5,5,5,4,4,4,2,4,4,0,4,0,0,2,0,0,2,0,0,0,3,3,3,0,3,0,0,0,0,0,0,0,0,0,0,0,0,0,0,0,0,0,0,0,0],"split_type":[1,1,1,1,1,1,1,1,1,1,1,1,1,0,1,0,0,1,0,1,1,1,1,1,1,1,1,0,1,0,0,0,0,0,0,0,0,0,0,0,0,0,0,0,0,0,0,0,0],"sum_hessian":[7.9072626E2,4.1476666E2,3.7595956E2,1.25190796E2,2.8957587E2,2.1597676E2,1.599828E2,3.6275352E1,8.891544E1,1.6895808E2,1.2061778E2,8.236051E1,1.3361626E2,2.8502401E1,1.314804E2,1.8813112E1,1.7462238E1,6.7098625E1,2.1816818E1,7.985717E1,8.9100914E1,5.960821E1,6.100957E1,4.210914E1,4.0251373E1,9.790396E1,3.5712296E1,3.0130013E1,1.0135039E2,2.7978682E1,3.911994E1,6.0886387E1,1.8970787E1,3.75637E1,5.1537212E1,3.7751907E1,2.1856304E1,3.6876705E1,2.4132864E1,2.171567E1,2.0393469E1,1.632697E1,2.3924402E1,7.012462E1,2.7779337E1,1.8065191E1,1.7647104E1,1.8992188E1,8.23582E1],"tree_param":{"num_deleted":"0","num_feature":"8","num_nodes":"49","size_leaf_vector":"1"}},{"base_weights":[1.5319417E-2,1.7805752E-1,-2.79947E-1,2.6496312E-1,1.14738934E-1,-1.4830008E-1,-5.298593E-1,1.6396445E-1,5.0813246E-1,1.3742809E-1,-2.9947741E-2,5.564088E-2,-2.6206446E-1,-7.6851887E-1,-3.0746502E-1,3.3840042E-1,-5.417135E-2,6.3429576E-1,3.498412E-2,2.62167E-1,9.4559014E-2,-1.3977131E-1,-4.7349787E-1,-1.2965633E-1,-3.0448832E-2,-1.2650997E-2,-6.2104747E-2,6.006392E-2,-1.3569337E-2,3.3220127E-2,-2.123438E-2,1.00316755E-1,5.573979E-2,4.51641E-2,1.227878E-2,1.8678602E-2,-4.0268167E-3,2.1891097E-2,-4.5880403E-2,-2.7909293E-3,-8.327042E-2],"categories":[0,1,2,4,5,6,7,8,9,0,1,2,4,1,3,5,0,1,2,3,4,5,7,8,1,1,2,3,4,1,2,0,1,2,0,1,2,0,1,3,4,5,6,0,6,0,1,0,1,2,0,1,2,3,4,5,7,8,9,10,11,12,13,14,15,0,1,2,3,4,5,6,7,8,9,10,11,12,0,1,2,3,4,5,0,1,2,3,4,5,7,8,9,10,11,12,0,1,2,3,4,7,8,9,10,11,12,13,14,0,2,3,4,5,6,7,1,4],"categories_nodes":[0,1,2,3,4,5,6,7,8,9,12,13,14,15,16,17,19,20,21,22],"categories_segments":[0,9,13,16,24,25,29,31,34,37,43,45,47,50,65,78,84,96,109,116],"categories_sizes":[9,4,3,8,1,4,2,3,3,6,2,2,3,15,13,6,12,13,7,2],"default_left":[1,1,1,1,1,1,1,1,1,1,0,0,1,1,1,1,1,1,0,1,1,1,1,0,0,0,0,0,0,0,0,0,0,0,0,0,0,0,0,0,0],"id":23,"left_children":[1,3,5,7,9,11,13,15,17,19,-1,-1,21,23,25,27,29,31,-1,33,35,37,39,-1,-1,-1,-1,-1,-1,-1,-1,-1,-1,-1,-1,-1,-1,-1,-1,-1,-1],"loss_changes":[3.701915E1,2.7163763E0,8.964531E0,5.0870485E0,2.395943E0,1.2573221E1,4.879566E0,5.655796E0,1.5771856E0,1.4389081E0,0E0,0E0,3.8969135E0,7.0588818E0,2.0687242E0,6.028816E0,2.7083719E0,1.1047211E0,0E0,1.2349086E0,1.5825845E0,7.5891237E0,5.4633045E0,0E0,0E0,0E0,0E0,0E0,0E0,0E0,0E0,0E0,0E0,0E0,0E0,0E0,0E0,0E0,0E0,0E0,0E0],"parents":[2147483647,0,0,1,1,2,2,3,3,4,4,5,5,6,6,7,7,8,8,9,9,12,12,13,13,14,14,15,15,16,16,17,17,19,19,20,20,21,21,22,22],"right_children":[2,4,6,8,10,12,14,16,18,20,-1,-1,22,24,26,28,30,32,-1,34,36,38,40,-1,-1,-1,-1,-1,-1,-1,-1,-1,-1,-1,-1,-1,-1,-1,-1,-1,-1],"split_conditions":[1E-45,1E-45,1E-45,1E-45,1E-45,1E-45,1E-45,1E-45,1E-45,1E-45,-2.9947741E-2,5.564088E-2,1E-45,1E-45,1E-45,1E-45,1E-45,1E-45,3.498412E-2,1E-45,1E-45,1E-45,1E-45,-1.2965633E-1,-3.0448832E-2,-1.2650997E-2,-6.2104747E-2,6.006392E-2,-1.3569337E-2,3.3220127E-2,-2.123438E-2,1.00316755E-1,5.573979E-2,4.51641E-2,1.227878E-2,1.8678602E-2,-4.0268167E-3,2.1891097E-2,-4.5880403E-2,-2.7909293E-3,-8.327042E-2],"split_indices":[3,4,4,1,1,5,3,5,1,4,0,0,1,5,5,1,1,4,0,1,1,3,5,0,0,0,0,0,0,0,0,0,0,0,0,0,0,0,0,0,0],"split_type":[1,1,1,1,1,1,1,1,1,1,0,0,1,1,1,1,1,1,0,1,1,1,1,0,0,0,0,0,0,0,0,0,0,0,0,0,0,0,0,0,0],"sum_hessian":[7.693922E2,4.9614804E2,2.7324417E2,2.0842499E2,2.8772305E2,1.7950314E2,9.374103E1,1.4786691E2,6.0558075E1,2.7113535E2,1.6587683E1,2.792807E1,1.5157507E2,4.4612835E1,4.9128193E1,8.2017456E1,6.5849464E1,3.7684917E1,2.2873158E1,6.866917E1,2.0246619E2,9.65711E1,5.5003975E1,2.7516441E1,1.7096394E1,2.5360678E1,2.3767515E1,6.040495E1,2.1612505E1,1.7622303E1,4.822716E1,1.64468E1,2.1238117E1,3.977905E1,2.8890116E1,1.3724312E2,6.522308E1,4.1475685E1,5.5095413E1,1.818523E1,3.681875E1],"tree_param":{"num_deleted":"0","num_feature":"8","num_nodes":"41","size_leaf_vector":"1"}},{"base_weights":[1.3751086E-2,2.2454575E-1,-2.2302124E-1,4.653953E-1,1.8869229E-1,-1.5314549E-1,-3.6565158E-1,3.2851774E-1,8.55903E-2,2.2608395E-1,3.5591416E-2,1.7656852E-1,-2.3684318E-1,-7.0100933E-1,-4.457268E-2,2.0925213E-2,5.6248218E-2,3.1909078E-1,9.432055E-2,1.6196908E-2,-5.9711807E-3,5.5299003E-2,-1.5017958E-2,9.691011E-3,-2.932623E-1,-1.1521549E-1,-6.145253E-2,1.12910196E-1,-4.357654E-2,5.037243E-2,2.3385003E-2,2.4164243E-2,-3.0865146E-2,-3.2522827E-2,2.6666798E-2,-1.5327055E-2,-4.1730244E-2,4.0334817E-2,-5.9050126E-3],"categories":[0,1,3,4,7,13,0,1,2,3,4,5,7,8,9,11,12,13,14,15,1,2,3,0,1,2,1,13,0,1,2,3,0,1,2,0,1,6,0,1,2,3,4,5,6,7,8,9,10,11,13,14,15,0,1,2,3,1,2,3,4,0,1,2,3,4,5,6,7,2,0,1,3,4,5,6,7,8,9,10,11,13,14,1,0,1,2,3,4,5,6,0,1,3],"categories_nodes":[0,1,2,3,5,6,7,9,10,11,12,13,14,17,18,20,24,27],"categories_segments":[0,6,20,23,26,28,32,35,38,53,57,61,69,70,83,84,88,91],"categories_sizes":[6,14,3,3,2,4,3,3,15,4,4,8,1,13,1,4,3,3],"default_left":[1,1,1,1,0,1,1,1,0,1,1,1,1,1,1,0,0,1,1,0,1,0,0,0,1,0,0,1,0,0,0,0,0,0,0,0,0,0,0],"id":24,"left_children":[1,3,5,7,9,11,13,15,-1,17,19,21,23,25,27,-1,-1,29,31,-1,33,-1,-1,-1,35,-1,-1,37,-1,-1,-1,-1,-1,-1,-1,-1,-1,-1,-1],"loss_changes":[3.7784676E1,3.4119072E0,3.5237179E0,1.6168423E0,1.9956007E0,6.649941E0,1.2565425E1,6.9000363E-1,0E0,3.424016E0,2.859088E-1,4.207397E0,3.4475403E0,2.538618E0,3.036873E0,0E0,0E0,2.001278E0,4.4012666E0,0E0,2.9951894E0,0E0,0E0,0E0,1.4291611E0,0E0,0E0,1.4752393E0,0E0,0E0,0E0,0E0,0E0,0E0,0E0,0E0,0E0,0E0,0E0],"parents":[2147483647,0,0,1,1,2,2,3,3,4,4,5,5,6,6,7,7,9,9,10,10,11,11,12,12,13,13,14,14,17,17,18,18,20,20,24,24,27,27],"right_children":[2,4,6,8,10,12,14,16,-1,18,20,22,24,26,28,-1,-1,30,32,-1,34,-1,-1,-1,36,-1,-1,38,-1,-1,-1,-1,-1,-1,-1,-1,-1,-1,-1],"split_conditions":[1E-45,1E-45,1E-45,1E-45,1E0,1E-45,1E-45,1E-45,8.55903E-2,1E-45,1E-45,1E-45,1E-45,1E-45,1E-45,2.0925213E-2,5.6248218E-2,1E-45,1E-45,1.6196908E-2,1E-45,5.5299003E-2,-1.5017958E-2,9.691011E-3,1E-45,-1.1521549E-1,-6.145253E-2,1E-45,-4.357654E-2,5.037243E-2,2.3385003E-2,2.4164243E-2,-3.0865146E-2,-3.2522827E-2,2.6666798E-2,-1.5327055E-2,-4.1730244E-2,4.0334817E-2,-5.9050126E-3],"split_indices":[0,0,4,5,6,0,3,4,0,4,0,5,5,3,3,0,0,0,5,0,4,0,0,0,4,0,0,4,0,0,0,0,0,0,0,0,0,0,0],"split_type":[1,1,1,1,0,1,1,1,0,1,1,1,1,1,1,0,0,1,1,0,1,0,0,0,1,0,0,1,0,0,0,0,0,0,0,0,0,0,0],"sum_hessian":[7.5604126E2,3.999828E2,3.5605844E2,5.1032978E1,3.489498E2,2.3969716E2,1.163613E2,3.3572178E1,1.7460802E1,2.8024432E2,6.8705505E1,4.8406956E1,1.9129019E2,5.6618374E1,5.9742924E1,1.6463718E1,1.710846E1,1.6384836E2,1.1639595E2,1.9989735E1,4.8715767E1,2.4823809E1,2.3583149E1,2.8826567E1,1.6246364E2,2.3181425E1,3.3436947E1,4.015857E1,1.9584354E1,9.030061E1,7.3547745E1,8.944677E1,2.694918E1,2.2501877E1,2.6213892E1,4.0219757E1,1.2224387E2,1.6701149E1,2.345742E1],"tree_param":{"num_deleted":"0","num_feature":"8","num_nodes":"39","size_leaf_vector":"1"}},{"base_weights":[1.3754768E-2,2.1768105E-1,-2.1646133E-1,4.7568724E-1,1.8039419E-1,-1.9379342E-1,-7.0484854E-2,4.4020046E-2,8.1594914E-2,4.635435E-1,1.350396E-1,-1.3000974E-1,-3.6256248E-1,7.678881E-2,4.0000934E-2,3.517557E-1,1.0507602E-1,-9.638972E-2,-6.552676E-2,-8.363666E-1,-4.0784657E-2,5.2052423E-2,3.0052591E-2,5.10905E-3,2.755879E-2,6.5506008E-3,-2.2061355E-2,-1.3059513E-1,-6.802607E-2,2.8325982E-2,-3.1542458E-2],"categories":[0,1,3,4,7,13,0,1,2,3,4,5,7,8,9,11,12,13,14,15,13,0,1,2,0,1,2,3,4,5,6,7,9,10,11,12,13,14,2,5,6,0,1,2,3,4,5,6,7,9,10,11,12,13,14,15,1,2,3,4,1,0,1,2,6,0,1,2,3,4,5,6,7,8,9,0,1,2,3,4,7,8,9,10,11,0,1,2,3,0,1,2,3,4,5,6,7,0,6],"categories_nodes":[0,1,2,3,4,5,9,10,11,12,15,16,17,19,20],"categories_segments":[0,6,20,21,24,38,41,56,60,61,65,75,85,89,97],"categories_sizes":[6,14,1,3,14,3,15,4,1,4,10,10,4,8,2],"default_left":[1,1,1,1,1,1,0,0,0,1,1,1,1,0,0,1,1,1,0,1,1,0,0,0,0,0,0,0,0,0,0],"id":25,"left_children":[1,3,5,7,9,11,-1,-1,-1,13,15,17,19,-1,-1,21,23,25,-1,27,29,-1,-1,-1,-1,-1,-1,-1,-1,-1,-1],"loss_changes":[3.4856377E1,3.7420902E0,2.862936E0,9.6970177E-1,4.3945875E0,3.5202055E0,0E0,0E0,0E0,9.7549343E-1,1.9144812E0,3.3170295E0,1.3707798E1,0E0,0E0,2.4029446E-1,2.0329983E0,2.9281304E0,0E0,2.1439476E0,3.3467908E0,0E0,0E0,0E0,0E0,0E0,0E0,0E0,0E0,0E0,0E0],"parents":[2147483647,0,0,1,1,2,2,3,3,4,4,5,5,9,9,10,10,11,11,12,12,15,15,16,16,17,17,19,19,20,20],"right_children":[2,4,6,8,10,12,-1,-1,-1,14,16,18,20,-1,-1,22,24,26,-1,28,30,-1,-1,-1,-1,-1,-1,-1,-1,-1,-1],"split_conditions":[1E-45,1E-45,1E-45,1E-45,1E-45,1E-45,-7.0484854E-2,4.4020046E-2,8.1594914E-2,1E-45,1E-45,1E-45,1E-45,7.678881E-2,4.0000934E-2,1E-45,1E-45,1E-45,-6.552676E-2,1E-45,1E-45,5.2052423E-2,3.0052591E-2,5.10905E-3,2.755879E-2,6.5506008E-3,-2.2061355E-2,-1.3059513E-1,-6.802607E-2,2.8325982E-2,-3.1542458E-2],"split_indices":[0,0,1,5,1,3,0,0,0,1,5,1,1,0,0,0,1,5,0,1,1,0,0,0,0,0,0,0,0,0,0],"split_type":[1,1,1,1,1,1,0,0,0,1,1,1,1,0,0,1,1,1,0,1,1,0,0,0,0,0,0,0,0,0,0],"sum_hessian":[7.4145044E2,3.931969E2,3.4825357E2,4.888982E1,3.443071E2,3.288668E2,1.9386766E1,3.2669353E1,1.6220467E1,4.68848E1,2.974223E2,2.3932816E2,8.9538635E1,1.9211224E1,2.7673576E1,3.545633E1,2.6196597E2,2.2197159E2,1.735657E1,3.5884285E1,5.3654346E1,1.8804728E1,1.66516E1,1.7461232E2,8.7353645E1,8.128768E1,1.4068391E2,1.7868517E1,1.801577E1,2.3852484E1,2.9801863E1],"tree_param":{"num_deleted":"0","num_feature":"8","num_nodes":"31","size_leaf_vector":"1"}},{"base_weights":[-1.5293824E-3,1.8159263E-1,-2.0799004E-1,4.4940197E-1,1.4344203E-1,-1.4214252E-1,-3.4687102E-1,2.9081507E-2,7.415497E-2,4.1509444E-1,1.0199736E-1,4.0695116E-2,-3.6636597E-1,-7.2425693E-1,-2.0589683E-2,6.2938996E-2,3.2349166E-2,1.2221318E-1,-2.0772427E-2,3.0051863E-1,-1.8752208E-1,-1.2975496E-1,-2.0086247E-1,-1.1214179E-1,-5.0357573E-2,1.5121269E-1,-4.1572914E-2,1.1726708E-2,5.046294E-2,7.446898E-2,1.2345276E-2,6.6693462E-3,-9.759657E-2,1.5345131E-3,-5.8511153E-2,-2.3638079E-2,7.404314E-2],"categories":[0,1,3,4,7,13,0,1,2,3,4,5,7,8,9,11,12,13,14,15,1,2,3,0,1,2,3,0,1,2,3,4,5,6,7,9,10,11,12,13,14,0,2,3,4,5,7,8,9,10,11,12,13,14,0,1,2,3,0,1,2,3,1,0,1,3,4,5,6,7,8,0,1,2,3,4,5,6,7,8,9,10,11,3,0,6,0,1,2,0,1,2,3,4,5,6,7,8,9,10,11,12,14,15,1,4,5,0,1],"categories_nodes":[0,1,2,3,4,5,6,9,10,11,12,13,14,17,19,20,22,25],"categories_segments":[0,6,20,23,27,41,54,58,62,63,71,83,84,86,89,104,105,107],"categories_sizes":[6,14,3,4,14,13,4,4,1,8,12,1,2,3,15,1,2,2],"default_left":[1,1,1,1,1,1,1,0,0,1,1,1,1,1,1,0,0,1,0,1,1,0,1,0,0,1,0,0,0,0,0,0,0,0,0,0,0],"id":26,"left_children":[1,3,5,7,9,11,13,-1,-1,15,17,19,21,23,25,-1,-1,27,-1,29,31,-1,33,-1,-1,35,-1,-1,-1,-1,-1,-1,-1,-1,-1,-1,-1],"loss_changes":[2.735719E1,3.8834305E0,3.0839977E0,1.5735998E0,3.7643242E0,9.50342E0,1.3415377E1,0E0,0E0,6.2822247E-1,1.635351E0,7.61985E0,1.2163989E1,3.014944E0,3.3225992E0,0E0,0E0,1.9812465E0,0E0,3.7539787E0,1.0406995E1,0E0,5.198654E0,0E0,0E0,6.354605E0,0E0,0E0,0E0,0E0,0E0,0E0,0E0,0E0,0E0,0E0,0E0],"parents":[2147483647,0,0,1,1,2,2,3,3,4,4,5,5,6,6,9,9,10,10,11,11,12,12,13,13,14,14,17,17,19,19,20,20,22,22,25,25],"right_children":[2,4,6,8,10,12,14,-1,-1,16,18,20,22,24,26,-1,-1,28,-1,30,32,-1,34,-1,-1,36,-1,-1,-1,-1,-1,-1,-1,-1,-1,-1,-1],"split_conditions":[1E-45,1E-45,1E-45,1E-45,1E-45,1E-45,1E-45,2.9081507E-2,7.415497E-2,1E-45,1E-45,1E-45,1E-45,1E-45,1E-45,6.2938996E-2,3.2349166E-2,1E-45,-2.0772427E-2,1E-45,1E-45,-1.2975496E-1,1E-45,-1.1214179E-1,-5.0357573E-2,1E-45,-4.1572914E-2,1.1726708E-2,5.046294E-2,7.446898E-2,1.2345276E-2,6.6693462E-3,-9.759657E-2,1.5345131E-3,-5.8511153E-2,-2.3638079E-2,7.404314E-2],"split_indices":[0,0,4,4,1,1,3,0,0,4,1,3,1,4,1,0,0,1,0,0,5,0,4,0,0,5,0,0,0,0,0,0,0,0,0,0,0],"split_type":[1,1,1,1,1,1,1,0,0,1,1,1,1,1,1,0,0,1,0,1,1,0,1,0,0,1,0,0,0,0,0,0,0,0,0,0,0],"sum_hessian":[7.22582E2,3.829585E2,3.3962344E2,4.7063435E1,3.3589508E2,2.3109714E2,1.0852632E2,2.1562807E1,2.5500626E1,4.385043E1,2.9204465E2,1.2751554E2,1.0358159E2,5.0032505E1,5.8493816E1,2.4418303E1,1.9432129E1,2.723005E2,1.9744122E1,5.9560776E1,6.7954765E1,1.8992476E1,8.458912E1,2.9123823E1,2.090868E1,3.8441196E1,2.0052622E1,2.520575E2,2.024302E1,2.239211E1,3.7168667E1,4.923866E1,1.8716108E1,4.8670753E1,3.5918365E1,2.2145325E1,1.6295872E1],"tree_param":{"num_deleted":"0","num_feature":"8","num_nodes":"37","size_leaf_vector":"1"}},{"base_weights":[8.50485E-3,1.7791954E-1,-1.8213294E-1,1.5393545E-1,5.2829385E-2,-1.4264193E-1,-4.9045625E-1,1.9715667E-1,-3.6857154E-2,-3.4249853E-2,-2.5647247E-1,-1.05868556E-1,-9.665576E-3,2.661411E-1,1.07348E-1,1.2622058E-1,-6.0443696E-2,1.1621554E-1,-1.7516325E-1,4.393724E-2,-4.2675623E-1,1.7813785E-2,5.3920623E-2,2.8582852E-2,-1.40730385E-2,-1.6342697E-3,2.5458902E-2,4.9831986E-4,5.822759E-2,-1.005678E-1,6.0681393E-3,6.796208E-2,-2.374105E-2,-2.5823845E-2,-6.56228E-2],"categories":[0,1,3,4,7,13,0,2,3,13,15,1,2,3,6,0,1,2,0,1,3,4,5,7,8,9,10,11,13,14,0,1,2,3,4,5,7,8,9,0,1,3,4,5,6,7,0,1,3,5,6,0,1,2,3,4,5,7,8,9,10,11,0,1,2,0,1,2,0,1,2,3,0,1,2,3,4,0,1,2,3,0,1,2,10],"categories_nodes":[0,1,2,5,6,7,8,9,10,13,14,15,17,18,19,20],"categories_segments":[0,6,9,11,15,18,30,39,46,51,62,65,68,72,77,81],"categories_sizes":[6,3,2,4,3,12,9,7,5,11,3,3,4,5,4,4],"default_left":[1,1,1,0,0,1,1,1,1,1,1,0,0,1,1,1,0,1,1,1,1,0,0,0,0,0,0,0,0,0,0,0,0,0,0],"id":27,"left_children":[1,3,5,7,-1,9,11,13,15,17,19,-1,-1,21,23,25,-1,27,29,31,33,-1,-1,-1,-1,-1,-1,-1,-1,-1,-1,-1,-1,-1,-1],"loss_changes":[2.294504E1,2.322443E0,4.0329113E0,2.8519049E0,0E0,3.659721E0,5.9962444E0,1.7292767E0,4.9094057E0,3.2492874E0,7.4178267E0,0E0,0E0,3.3827982E0,3.6184974E0,5.752253E-1,0E0,3.0563154E0,1.1823197E1,6.7047877E0,2.2707672E0,0E0,0E0,0E0,0E0,0E0,0E0,0E0,0E0,0E0,0E0,0E0,0E0,0E0,0E0],"parents":[2147483647,0,0,1,1,2,2,3,3,5,5,6,6,7,7,8,8,9,9,10,10,13,13,14,14,15,15,17,17,18,18,19,19,20,20],"right_children":[2,4,6,8,-1,10,12,14,16,18,20,-1,-1,22,24,26,-1,28,30,32,34,-1,-1,-1,-1,-1,-1,-1,-1,-1,-1,-1,-1,-1,-1],"split_conditions":[1E-45,1E-45,1E-45,1E0,5.2829385E-2,1E-45,1E-45,1E-45,1E-45,1E-45,1E-45,-1.05868556E-1,-9.665576E-3,1E-45,1E-45,1E-45,-6.0443696E-2,1E-45,1E-45,1E-45,1E-45,1.7813785E-2,5.3920623E-2,2.8582852E-2,-1.40730385E-2,-1.6342697E-3,2.5458902E-2,4.9831986E-4,5.822759E-2,-1.005678E-1,6.0681393E-3,6.796208E-2,-2.374105E-2,-2.5823845E-2,-6.56228E-2],"split_indices":[0,1,1,6,0,4,3,0,1,3,1,0,0,1,4,5,0,1,3,5,3,0,0,0,0,0,0,0,0,0,0,0,0,0,0],"split_type":[1,1,1,0,0,1,1,1,1,1,1,0,0,1,1,1,0,1,1,1,1,0,0,0,0,0,0,0,0,0,0,0,0,0,0],"sum_hessian":[7.0943286E2,3.7565192E2,3.337809E2,3.44829E2,3.0822906E1,2.9654623E2,3.7234695E1,2.8114108E2,6.368792E1,1.5225246E2,1.4429376E2,1.8784758E1,1.8449936E1,1.5842468E2,1.2271641E2,4.7439762E1,1.6248156E1,7.36621E1,7.859036E1,5.2329773E1,9.196399E1,9.6734375E1,6.1690315E1,7.761263E1,4.5103775E1,1.8148647E1,2.9291117E1,5.68641E1,1.6798002E1,1.9652035E1,5.8938328E1,1.6352852E1,3.597692E1,3.357685E1,5.8387135E1],"tree_param":{"num_deleted":"0","num_feature":"8","num_nodes":"35","size_leaf_vector":"1"}},{"base_weights":[-1.3245639E-3,1.3328858E-1,-1.6045906E-1,3.652332E-1,1.0166738E-1,-6.742553E-2,-1.2009149E-1,2.6325716E-2,6.084303E-2,1.4056942E-1,-5.6112144E-2,-4.2701386E-2,-2.8099862E-1,2.7554932E-1,1.081182E-1,9.766806E-3,-1.6553548E-1,4.2078307E-1,-1.8685035E-1,-1.2861936E-1,-1.0016598E-1,1.4326031E-2,7.122826E-2,3.1542908E-3,2.9162245E-2,1.0390843E-2,-4.8307717E-2,3.2462645E-2,6.847841E-2,7.187034E-3,-3.4524687E-2,1.1197673E-2,-9.345835E-2],"categories":[0,1,13,0,1,2,3,4,5,7,8,9,11,12,13,14,15,0,1,2,3,4,5,6,7,8,9,10,11,15,0,1,2,3,2,4,5,1,3,4,0,1,2,3,4,5,6,7,8,0,1,2,3,5,6,0,1,2,3,4,5,6,0,1,2,3,4,5,7,8,9,0,1,6,0,1,2,3,4,5,6,7,8,9,1,13],"categories_nodes":[0,1,2,3,6,9,10,11,12,14,16,17,18],"categories_segments":[0,3,17,30,34,37,40,49,55,62,71,74,84],"categories_sizes":[3,14,13,4,3,3,9,6,7,9,3,10,2],"default_left":[1,1,1,1,0,0,1,0,0,1,1,1,1,0,1,0,1,1,1,0,0,0,0,0,0,0,0,0,0,0,0,0,0],"id":28,"left_children":[1,3,5,7,9,-1,11,-1,-1,13,15,17,19,21,23,-1,25,27,29,-1,31,-1,-1,-1,-1,-1,-1,-1,-1,-1,-1,-1,-1],"loss_changes":[1.490374E1,2.7440395E0,5.1155014E0,8.686619E-1,2.044437E0,0E0,3.607572E0,0E0,0E0,1.152401E0,1.0001923E0,1.3174707E1,1.3371218E1,2.5073664E0,2.3725033E0,0E0,2.2180858E0,9.691181E-1,3.7265067E0,0E0,1.0136566E1,0E0,0E0,0E0,0E0,0E0,0E0,0E0,0E0,0E0,0E0,0E0,0E0],"parents":[2147483647,0,0,1,1,2,2,3,3,4,4,6,6,9,9,10,10,11,11,12,12,13,13,14,14,16,16,17,17,18,18,20,20],"right_children":[2,4,6,8,10,-1,12,-1,-1,14,16,18,20,22,24,-1,26,28,30,-1,32,-1,-1,-1,-1,-1,-1,-1,-1,-1,-1,-1,-1],"split_conditions":[1E-45,1E-45,1E-45,1E-45,1E0,-6.742553E-2,1E-45,2.6325716E-2,6.084303E-2,1E-45,1E-45,1E-45,1E-45,1E0,1E-45,9.766806E-3,1E-45,1E-45,1E-45,-1.2861936E-1,1E0,1.4326031E-2,7.122826E-2,3.1542908E-3,2.9162245E-2,1.0390843E-2,-4.8307717E-2,3.2462645E-2,6.847841E-2,7.187034E-3,-3.4524687E-2,1.1197673E-2,-9.345835E-2],"split_indices":[0,0,1,5,6,0,3,0,0,5,0,1,1,7,1,0,1,1,0,0,7,0,0,0,0,0,0,0,0,0,0,0,0],"split_type":[1,1,1,1,0,0,1,0,0,1,1,1,1,0,1,0,1,1,1,0,0,0,0,0,0,0,0,0,0,0,0,0,0],"sum_hessian":[6.94723E2,3.7639157E2,3.1833142E2,4.450695E1,3.3188464E2,2.8560417E1,2.89771E2,2.2466114E1,2.2040836E1,2.6630133E2,6.558331E1,1.9610857E2,9.366243E1,5.0862633E1,2.1543869E2,2.9126755E1,3.6456554E1,4.6287987E1,1.4982059E2,1.700527E1,7.665716E1,3.4522266E1,1.6340366E1,1.3426337E2,8.117532E1,1.778824E1,1.8668314E1,2.3695877E1,2.2592108E1,4.3354095E1,1.06466484E2,5.9967304E1,1.6689857E1],"tree_param":{"num_deleted":"0","num_feature":"8","num_nodes":"33","size_leaf_vector":"1"}},{"base_weights":[-3.8086423E-3,1.04027435E-1,-1.7643295E-1,4.6551872E-2,8.432593E-2,-5.1641658E-2,-2.9159626E-1,1.0701322E-1,-3.909466E-2,4.399656E-1,-2.4250866E-1,3.7123277E-3,-3.8570192E-1,1.4835267E-1,-7.0299003E-3,6.416628E-2,4.1285228E-2,-9.2610136E-2,-1.2337391E-1,-1.581609E-1,-6.8417585E-1,2.1940498E-2,-3.899715E-2,1.9814985E-2,-4.3654963E-2,3.0491555E-2,-4.3274388E-2,3.4901183E-2,-6.506676E-2,-1.3167693E-1,-4.4150792E-2],"categories":[1,13,0,1,2,3,4,5,7,8,9,10,11,12,13,14,15,1,3,5,6,1,1,3,4,0,2,3,4,0,1,0,1,2,3,0,1,2,3,4,5,3,5,1,3,4,6,7,8,9,0,5,0,1,2,3,4,6,0,1,2,3,4,5,7,8,9,10,11,12,0,1,2,3],"categories_nodes":[0,1,2,4,5,6,7,9,10,12,13,14,18,19,20],"categories_segments":[0,2,17,21,22,25,29,31,35,41,43,50,52,58,70],"categories_sizes":[2,15,4,1,3,4,2,4,6,2,7,2,6,12,4],"default_left":[1,1,1,0,1,1,1,1,0,1,1,0,1,1,1,0,0,0,1,1,1,0,0,0,0,0,0,0,0,0,0],"id":29,"left_children":[1,3,5,-1,7,9,11,13,-1,15,17,-1,19,21,23,-1,-1,-1,25,27,29,-1,-1,-1,-1,-1,-1,-1,-1,-1,-1],"loss_changes":[1.2869878E1,2.3554592E0,3.811636E0,0E0,3.7185657E0,1.2083135E1,4.1987696E0,1.782897E0,0E0,2.3083973E-1,5.775401E0,0E0,7.2074547E0,4.502494E0,6.20993E0,0E0,0E0,0E0,6.8410454E0,1.0616255E1,5.7989845E0,0E0,0E0,0E0,0E0,0E0,0E0,0E0,0E0,0E0,0E0],"parents":[2147483647,0,0,1,1,2,2,4,4,5,5,6,6,7,7,9,9,10,10,12,12,13,13,14,14,18,18,19,19,20,20],"right_children":[2,4,6,-1,8,10,12,14,-1,16,18,-1,20,22,24,-1,-1,-1,26,28,30,-1,-1,-1,-1,-1,-1,-1,-1,-1,-1],"split_conditions":[1E-45,1E-45,1E-45,4.6551872E-2,1E-45,1E-45,1E-45,1E-45,-3.909466E-2,1E-45,1E-45,3.7123277E-3,1E-45,1E-45,1E-45,6.416628E-2,4.1285228E-2,-9.2610136E-2,1E-45,1E-45,1E-45,2.1940498E-2,-3.899715E-2,1.9814985E-2,-4.3654963E-2,3.0491555E-2,-4.3274388E-2,3.4901183E-2,-6.506676E-2,-1.3167693E-1,-4.4150792E-2],"split_indices":[0,0,4,0,1,5,5,4,0,3,3,0,4,0,0,0,0,0,1,1,3,0,0,0,0,0,0,0,0,0,0],"split_type":[1,1,1,0,1,1,1,1,0,1,1,0,1,1,1,0,0,0,1,1,1,0,0,0,0,0,0,0,0,0,0],"sum_hessian":[6.903528E2,4.25026E2,2.6532675E2,2.7030704E1,3.979953E2,1.2770443E2,1.3762233E2,3.7746063E2,2.0534664E1,3.5526207E1,9.217822E1,3.1157999E1,1.06464325E2,2.769473E2,1.0051336E2,1.6865814E1,1.8660393E1,1.6466171E1,7.571205E1,6.0854298E1,4.5610027E1,2.586018E2,1.8345482E1,6.797131E1,3.2542046E1,2.9169968E1,4.6542084E1,2.8083673E1,3.2770622E1,1.9320705E1,2.6289322E1],"tree_param":{"num_deleted":"0","num_feature":"8","num_nodes":"31","size_leaf_vector":"1"}},{"base_weights":[2.5690156E-3,1.16850086E-1,-1.2577108E-1,4.5912113E-2,9.488917E-2,1.4187181E-2,-1.5197285E-1,2.2067821E-1,6.147183E-2,-6.483781E-2,-1.1014003E-1,3.3436838E-1,-1.0234463E-2,1.1775773E-1,-4.9121946E-2,-6.1483283E-2,-4.1025007E-1,4.9095515E-2,2.6826924E-2,2.1722816E-2,-1.1143113E-2,-4.5403697E-2,7.199696E-3,3.1568103E-2,-1.3941372E-2,-9.098162E-2,-1.2792165E-2],"categories":[0,1,3,4,7,13,0,1,2,3,4,5,7,8,9,10,11,12,13,14,15,0,1,3,4,5,6,7,8,9,10,11,12,13,14,15,1,3,4,0,1,2,3,4,5,6,7,8,9,10,11,15,0,1,2,3,4,6,7,8,9,5,2,0,1,2,3,4,5,7,8,9,10,11,12,13,0,1,2,3,4,5,7,0,1,2,3,4,5,6,7,0,1,2,3,4,6,7,8,9,10,15,0,1,2],"categories_nodes":[0,1,2,4,6,7,8,10,11,13,14,15,16],"categories_segments":[0,6,21,36,39,52,61,62,63,76,83,91,102],"categories_sizes":[6,15,15,3,13,9,1,1,13,7,8,11,3],"default_left":[1,1,1,0,1,0,1,1,1,0,1,1,0,1,1,1,1,0,0,0,0,0,0,0,0,0,0],"id":30,"left_children":[1,3,5,-1,7,-1,9,11,13,-1,15,17,-1,19,21,23,25,-1,-1,-1,-1,-1,-1,-1,-1,-1,-1],"loss_changes":[9.996626E0,2.078148E0,2.059536E0,0E0,1.3946722E0,0E0,4.6674013E0,2.4422743E0,1.6485156E0,0E0,3.8183365E0,3.7151957E-1,0E0,2.3292623E0,3.2162385E0,4.0104365E0,3.8002071E0,0E0,0E0,0E0,0E0,0E0,0E0,0E0,0E0,0E0,0E0],"parents":[2147483647,0,0,1,1,2,2,4,4,6,6,7,7,8,8,10,10,11,11,13,13,14,14,15,15,16,16],"right_children":[2,4,6,-1,8,-1,10,12,14,-1,16,18,-1,20,22,24,26,-1,-1,-1,-1,-1,-1,-1,-1,-1,-1],"split_conditions":[1E-45,1E-45,1E-45,4.5912113E-2,1E-45,1.4187181E-2,1E-45,1E-45,1E-45,-6.483781E-2,1E-45,1E-45,-1.0234463E-2,1E-45,1E-45,1E-45,1E-45,4.9095515E-2,2.6826924E-2,2.1722816E-2,-1.1143113E-2,-4.5403697E-2,7.199696E-3,3.1568103E-2,-1.3941372E-2,-9.098162E-2,-1.2792165E-2],"split_indices":[0,0,1,0,5,0,1,0,0,0,3,1,0,1,1,1,5,0,0,0,0,0,0,0,0,0,0],"split_type":[1,1,1,0,1,0,1,1,1,0,1,1,0,1,1,1,1,0,0,0,0,0,0,0,0,0,0],"sum_hessian":[6.805728E2,3.600422E2,3.205306E2,2.6913496E1,3.3312872E2,3.0926895E1,2.8960373E2,6.931007E1,2.6381863E2,2.7643682E1,2.6196005E2,5.0498722E1,1.8811342E1,1.7483481E2,8.898384E1,2.2594577E2,3.6014275E1,2.951543E1,2.0983292E1,1.3467029E2,4.0164513E1,2.1868916E1,6.711493E1,3.2224762E1,1.9372101E2,1.647401E1,1.9540264E1],"tree_param":{"num_deleted":"0","num_feature":"8","num_nodes":"27","size_leaf_vector":"1"}},{"base_weights":[-9.765901E-3,1.08161256E-1,-1.5244384E-1,6.410756E-2,2.7002782E-1,-6.0319945E-2,-1.1898942E-1,9.2633E-2,-3.640403E-2,1.9227707E-1,6.55652E-2,-6.285106E-2,-3.556453E-1,1.5869437E-1,-1.4938368E-1,4.282127E-2,8.017593E-3,1.688499E-1,-1.2016929E-1,-9.4147265E-2,-1.3662525E-1,3.4589227E-2,1.5554787E-3,-2.3846324E-3,-4.1303907E-2,-3.6931302E-2,5.7674434E-2,8.146635E-3,-3.591812E-2,-6.264568E-2,2.7634101E-2],"categories":[0,1,13,0,2,3,4,7,8,9,0,1,2,3,4,5,6,7,8,9,10,11,15,0,2,3,4,7,8,9,10,11,12,1,3,0,1,2,3,4,0,1,2,3,4,6,7,8,9,10,0,1,2,3,4,6,1,3,5,6,0,1,2,0,1,2,3,4,0,2,6,0,1,2,3],"categories_nodes":[0,1,2,3,6,9,11,12,13,14,17,18,20],"categories_segments":[0,3,10,23,33,35,40,50,56,60,63,68,71],"categories_sizes":[3,7,13,10,2,5,10,6,4,3,5,3,4],"default_left":[1,1,1,1,0,0,1,0,0,1,0,1,1,1,1,0,0,1,1,0,1,0,0,0,0,0,0,0,0,0,0],"id":31,"left_children":[1,3,5,7,9,-1,11,13,-1,15,-1,17,19,21,23,-1,-1,25,27,-1,29,-1,-1,-1,-1,-1,-1,-1,-1,-1,-1],"loss_changes":[1.1346151E1,2.6228662E0,3.5325227E0,3.0575025E0,1.6312389E0,0E0,3.6957622E0,4.3334923E0,0E0,1.2673979E0,0E0,3.0146475E0,4.940628E0,3.9931736E0,1.4591757E0,0E0,0E0,6.741186E0,6.1061363E0,0E0,5.1202307E0,0E0,0E0,0E0,0E0,0E0,0E0,0E0,0E0,0E0,0E0],"parents":[2147483647,0,0,1,1,2,2,3,3,4,4,6,6,7,7,9,9,11,11,12,12,13,13,14,14,17,17,18,18,20,20],"right_children":[2,4,6,8,10,-1,12,14,-1,16,-1,18,20,22,24,-1,-1,26,28,-1,30,-1,-1,-1,-1,-1,-1,-1,-1,-1,-1],"split_conditions":[1E-45,1E-45,1E-45,1E-45,1E0,-6.0319945E-2,1E-45,1E0,-3.640403E-2,1E-45,6.55652E-2,1E-45,1E-45,1E-45,1E-45,4.282127E-2,8.017593E-3,1E-45,1E-45,-9.4147265E-2,1E-45,3.4589227E-2,1.5554787E-3,-2.3846324E-3,-4.1303907E-2,-3.6931302E-2,5.7674434E-2,8.146635E-3,-3.591812E-2,-6.264568E-2,2.7634101E-2],"split_indices":[0,1,1,1,7,0,4,6,0,4,0,1,1,4,4,0,0,4,4,0,3,0,0,0,0,0,0,0,0,0,0],"split_type":[1,1,1,1,0,0,1,0,0,1,0,1,1,1,1,0,0,1,1,0,1,0,0,0,0,0,0,0,0,0,0],"sum_hessian":[6.733318E2,3.6869464E2,3.0463715E2,2.9038675E2,7.830788E1,2.6008959E1,2.7862817E2,2.69794E2,2.0592772E1,6.1735817E1,1.6572063E1,2.2573273E2,5.2895454E1,2.1208888E2,5.770511E1,2.6377605E1,3.535821E1,4.4561398E1,1.8117134E2,1.7479822E1,3.5415634E1,1.1225767E2,9.9831215E1,3.4950703E1,2.2754408E1,1.7600622E1,2.6960777E1,8.8409225E1,9.276211E1,1.7185938E1,1.8229694E1],"tree_param":{"num_deleted":"0","num_feature":"8","num_nodes":"31","size_leaf_vector":"1"}},{"base_weights":[1.2568166E-2,1.1266237E-1,-1.0176867E-1,7.416083E-2,2.2599463E-1,1.1064156E-1,-1.3261603E-1,1.6505577E-1,-1.3307194E-1,5.4632556E-1,-9.315958E-3,2.4728978E-2,3.1241511E-3,1.13262974E-1,-1.7870867E-1,4.6768236E-1,8.371704E-2,-1.0820641E-2,-5.9124652E-2,7.796717E-2,4.825E-2,4.622998E-2,-3.7722133E-2,3.197712E-2,-5.768179E-3,-8.170158E-2,-1.1665352E-1,8.4459744E-2,2.1704184E-2,4.122808E-2,-6.6422764E-3,2.5000125E-2,-5.039703E-2,7.3929294E-3,-3.0161649E-2],"categories":[0,1,3,4,7,13,0,2,3,4,7,8,9,10,11,0,1,2,4,5,6,7,10,4,0,1,2,3,0,1,2,4,5,6,7,8,9,1,2,3,4,0,1,2,3,5,6,4,0,1,3,4,5,6,7,8,9,10,11,12,13,14,15,0,1,2,5,0,1,2,3,0,1,2,3,4,5,6,7,8,9,10,11,12,0,1,2,3,4,5,6,7,8,9,10,5,12,15,0,1,2,3,4,5,7,8,9,10,11,12,13,14,15,1,2,5,6],"categories_nodes":[0,1,2,3,4,5,6,7,8,9,10,13,14,15,16,17,26],"categories_segments":[0,6,15,23,24,28,37,41,47,48,63,67,71,84,95,98,113],"categories_sizes":[6,9,8,1,4,9,4,6,1,15,4,4,13,11,3,15,4],"default_left":[1,1,1,1,1,1,1,1,1,1,1,0,0,1,1,1,1,1,0,0,0,0,0,0,0,0,1,0,0,0,0,0,0,0,0],"id":32,"left_children":[1,3,5,7,9,11,13,15,17,19,21,-1,-1,23,25,27,29,31,-1,-1,-1,-1,-1,-1,-1,-1,33,-1,-1,-1,-1,-1,-1,-1,-1],"loss_changes":[7.6003447E0,1.5356364E0,2.0387492E0,5.00423E0,6.7522383E0,3.1485975E-1,3.0810518E0,4.5198E0,3.5506196E0,4.2697525E-1,6.305267E0,0E0,0E0,1.0672983E0,7.0538573E0,2.559533E0,5.269085E0,5.4916263E0,0E0,0E0,0E0,0E0,0E0,0E0,0E0,0E0,4.8797617E0,0E0,0E0,0E0,0E0,0E0,0E0,0E0,0E0],"parents":[2147483647,0,0,1,1,2,2,3,3,4,4,5,5,6,6,7,7,8,8,9,9,10,10,13,13,14,14,15,15,16,16,17,17,26,26],"right_children":[2,4,6,8,10,12,14,16,18,20,22,-1,-1,24,26,28,30,32,-1,-1,-1,-1,-1,-1,-1,-1,34,-1,-1,-1,-1,-1,-1,-1,